-1.3859201669692993 0.4617007374763489 -0.36339640617370605 -0.6922357082366943 0.33748525381088257 -0.6512986421585083 -1.4625483751296997 -0.8516920208930969 0.30626723170280457 -0.5103875398635864 0.2725025415420532 -0.41918841004371643 -0.7508525252342224 -0.7182424068450928 0.31385019421577454 -1.0684163570404053
0.3554423153400421 0.3197574317455292 -0.23029671609401703 -0.49241429567337036 0.18524987995624542 0.30557844042778015 -0.20561973750591278 0.29623961448669434 -1.134074330329895 0.3087402284145355 -1.3031286001205444 0.11616604030132294 0.4289109408855438 0.3525395691394806 -1.7712700366973877 -0.4152369499206543
0.33908647298812866 -0.3048054277896881 -0.008569512516260147 0.21496251225471497 -0.232535719871521 0.23766356706619263 -0.12058395147323608 0.29616451263427734 0.09546729177236557 0.25936031341552734 0.13189569115638733 0.3067459166049957 0.29351553320884705 -0.060702890157699585 -0.3960203528404236 0.2606703042984009
0.24873735010623932 0.28959593176841736 0.25966402888298035 0.26804831624031067 -0.09832096844911575 -0.28449711203575134 0.2300945520401001 -0.13182103633880615 0.15643414855003357 -0.07953990995883942 0.0058367629535496235 0.34485793113708496 0.3363123834133148 0.25633177161216736 0.16038645803928375 0.20748639106750488
-1.6597957611083984 -1.2712408304214478 -0.49997732043266296 0.4153505265712738 0.34407374262809753 -1.4064853191375732 0.46896764636039734 -0.8503747582435608 -1.6737223863601685 -0.6191197037696838 -0.9636520743370056 -0.6654250621795654 -1.2898643016815186 -0.47371211647987366 -1.3510737419128418 0.41562727093696594
-0.05388978123664856 0.3499727249145508 0.23109658062458038 0.14316043257713318 0.16485579311847687 -0.384168416261673 0.2537570893764496 -0.2945188283920288 0.1864035427570343 -0.44152596592903137 0.1933557242155075 0.28149154782295227 0.2863132953643799 0.27436622977256775 0.25310298800468445 -0.019410502165555954
-0.5186122059822083 -0.014907698146998882 0.398776650428772 -0.8029071688652039 -0.5813379883766174 0.30100083351135254 -1.3545626401901245 0.3705688714981079 0.2485654652118683 0.28801167011260986 0.2061670422554016 -0.7198880910873413 -1.3153488636016846 -0.9292190670967102 0.2347097396850586 -0.6805736422538757
-1.3407933712005615 -1.092224359512329 -0.9540406465530396 0.43797945976257324 0.3928016722202301 -1.387980341911316 0.4454994797706604 -1.0476529598236084 -1.8466606140136719 -0.7542076110839844 -0.6184407472610474 -0.941279411315918 -1.1147611141204834 -0.8255115747451782 -0.6936392784118652 0.4224698841571808
0.24789312481880188 -0.056700706481933594 0.26631829142570496 0.056697048246860504 0.2582341730594635 0.16087734699249268 0.2542935907840729 0.18122269213199615 -0.39477601647377014 -0.015912773087620735 -0.32457610964775085 0.32736828923225403 0.3101551830768585 0.3065143823623657 -0.022633781656622887 -0.03035445138812065
-1.6826993227005005 -0.627508819103241 -0.769851565361023 0.41100624203681946 0.40576446056365967 -1.7097735404968262 0.44365161657333374 -1.4526751041412354 -1.83616042137146 -1.07570219039917 -0.7685567736625671 -0.9578416347503662 -1.075122356414795 -0.5064019560813904 -1.4134472608566284 0.43026989698410034 
