-0.0026929043233394623 0.012508060783147812 0.020995523780584335 -0.023704972118139267 -0.030728762969374657 -0.028344526886940002 0.02317659556865692 0.025748226791620255 -0.0006776973605155945 0.03432270511984825 0.014638163149356842 -0.0020741745829582214 0.003048621118068695 -0.034082189202308655 -0.018655991181731224 -0.021004285663366318 0.024087131023406982 -0.006489034742116928 0.03305892273783684 -0.0077243372797966 -0.035027820616960526 -0.02781068906188011 -0.020112166181206703 0.0068223364651203156 0.011508878320455551 -0.03562163934111595 0.03174265846610069 0.023451384156942368 0.007054910063743591 -0.03020489402115345 0.0047814734280109406 0.017693664878606796 0.029886629432439804 -0.18844975531101227 -0.317780077457428 -0.1702922135591507 -0.5021329522132874 -0.3435487151145935 -0.12692807614803314 -0.5000975131988525 -0.5331758260726929 -0.3931901752948761 -0.17918206751346588 -0.3534994423389435 -0.45240074396133423 -0.3376772999763489 -0.16188985109329224 -0.19586139917373657 -0.14943571388721466 -0.047454625368118286 -0.20327900350093842 -0.22956125438213348 0.008411005139350891 -0.031920917332172394 0.003040764480829239 -0.02041568234562874 -0.008967945352196693 0.021884754300117493 0.0343044213950634 0.012223295867443085 -0.0025154873728752136 -0.30466970801353455 -0.39204302430152893 -0.23546580970287323 -0.5787919759750366 -0.5031118392944336 -0.6828756332397461 -0.8024778962135315 -0.6909232139587402 -0.7955877184867859 -0.8253373503684998 -0.8191416263580322 -0.6995459794998169 -0.6160856485366821 -0.6992489695549011 -0.3532601296901703 0.11038865894079208 -0.40694981813430786 -0.3376334309577942 -0.21784348785877228 0.0038947947323322296 0.03184952959418297 0.01393720880150795 -0.02752700448036194 -0.0021678991615772247 -0.014635002240538597 0.01471482589840889 -0.029658591374754906 0.0011343993246555328 -0.15117953717708588 -0.2569640576839447 -0.44587498903274536 -0.8610593676567078 -0.8429386615753174 -0.8594773411750793 -0.795868992805481 -1.0560879707336426 -0.9688899517059326 -0.8578243255615234 -0.848053514957428 -0.5920289158821106 -0.5724989175796509 -0.46908363699913025 -0.5219442844390869 -0.26563698053359985 -0.08217716217041016 -0.549623966217041 -0.05793493241071701 -0.1523929387331009 -0.03483397886157036 -0.022336846217513084 0.004627678543329239 -0.01131601445376873 0.016573671251535416 0.0036746636033058167 -0.012744022533297539 0.17471329867839813 0.1280103325843811 -0.4911516010761261 -0.41796156764030457 -0.35262978076934814 -0.5227252244949341 -0.32704663276672363 -0.8443306684494019 -0.7847315073013306 -0.6324742436408997 -0.6685917973518372 -0.7898953557014465 -0.22963355481624603 -0.18820469081401825 -0.0729173868894577 0.03830817714333534 0.07787887006998062 0.2276826649904251 0.2842997908592224 -0.15763606131076813 0.08159404247999191 0.32749563455581665 0.0035980648826807737 0.006263364106416702 -0.03344562277197838 0.029419895261526108 0.01265480276197195 0.047876857221126556 0.413464218378067 0.3343062102794647 0.011281656101346016 0.04092602804303169 -0.049447279423475266 -0.3214411735534668 -0.48669129610061646 -0.26359912753105164 -0.6212255358695984 -0.5424606800079346 -0.664389431476593 -0.7850778698921204 -0.6185945868492126 -0.47584134340286255 -0.2615669071674347 -0.0702795535326004 -0.10719314962625504 0.13992387056350708 0.07571681588888168 0.23240290582180023 0.496720552444458 0.3610474169254303 0.051115911453962326 0.03166165575385094 0.00814792886376381 0.0032513327896595 0.29048746824264526 0.37071681022644043 0.27205321192741394 0.3888961970806122 -0.18190374970436096 0.03160471469163895 -0.09498374164104462 -0.05960949510335922 -0.041396889835596085 -0.3127696216106415 -0.3669451177120209 -0.21603405475616455 -0.206588014960289 -0.10567744076251984 0.06623612344264984 -0.09984184801578522 -0.07908432185649872 -0.31807684898376465 -0.19911915063858032 -0.01796839013695717 -0.09038785845041275 0.0010173593182116747 0.14778748154640198 -0.2756025195121765 -0.6663120985031128 -0.10943532735109329 0.005013603717088699 0.32913604378700256 0.4942101240158081 0.632323145866394 0.19568385183811188 -0.005264224484562874 0.14343777298927307 0.11591746658086777 0.003862596582621336 0.01829957589507103 0.18191634118556976 0.041153404861688614 -0.08768446743488312 -0.16030342876911163 0.09345056116580963 -0.04551326110959053 -0.01452691201120615 0.07862034440040588 -0.2406817376613617 -0.027900805696845055 -0.058197733014822006 -0.2550432085990906 0.013096228241920471 -0.2844104766845703 -0.3456464409828186 -0.20774903893470764 -0.28230053186416626 -0.12031206488609314 0.0033739283680915833 0.4325779974460602 0.8990293741226196 0.474902868270874 -0.1039726510643959 -0.16719737648963928 0.09355167299509048 -0.048051752150058746 0.13379986584186554 0.34120240807533264 0.10844801366329193 0.007398711051791906 0.25434547662734985 0.10354366153478622 0.08639261871576309 -0.007573225535452366 -0.1034836620092392 0.0410664826631546 0.16585001349449158 -0.1303064078092575 -0.13329924643039703 -0.1428089588880539 -0.20327766239643097 -0.320980429649353 -0.6759188771247864 -0.8453369140625 -0.25253912806510925 -0.071525938808918 0.02494104765355587 0.7977270483970642 0.8535714149475098 0.7469897270202637 0.3319878876209259 0.19558238983154297 0.06878390163183212 0.2156299352645874 0.07979877293109894 0.26735973358154297 0.016552796587347984 0.15219193696975708 0.2756403684616089 0.3006994128227234 0.11587841808795929 0.01634787581861019 0.24504560232162476 0.33047571778297424 -0.14554356038570404 -0.09168160706758499 -0.1410297304391861 -0.26613420248031616 -0.3168160915374756 -0.4506908059120178 -0.8903719186782837 -0.9018135666847229 -0.3119698464870453 -0.13956934213638306 0.12898924946784973 0.7426049709320068 1.6359827518463135 0.22876743972301483 0.20579537749290466 -0.07400627434253693 0.06447084993124008 0.3611941635608673 0.0872032567858696 0.03388354554772377 0.14425669610500336 0.26985710859298706 0.02576444298028946 0.08988093584775925 -0.28404006361961365 -0.22990334033966064 0.3569605350494385 0.2372955083847046 0.23662245273590088 0.08574210107326508 0.11597716063261032 0.1206844300031662 -0.28146880865097046 -0.2707372009754181 -0.8359944224357605 -0.48223546147346497 -0.3838239312171936 -0.007979289628565311 0.24812592566013336 0.5942261815071106 1.292439579963684 0.17555874586105347 0.5194500684738159 0.0628066211938858 0.002216105815023184 0.4101920425891876 0.28924044966697693 0.16111250221729279 0.13234025239944458 -0.01507746521383524 -0.03153219446539879 -0.33059224486351013 -0.29091379046440125 0.03220352903008461 0.49571558833122253 0.4189840853214264 0.2617597281932831 0.18774577975273132 -0.06073874980211258 0.11810389906167984 0.010108488611876965 -0.17279984056949615 -0.8003914952278137 -0.22408315539360046 -0.16672998666763306 0.10530483722686768 -0.016627781093120575 0.4008321166038513 1.2372422218322754 0.6493548154830933 0.4345530569553375 0.20771174132823944 0.0719892755150795 -0.022556208074092865 0.14294004440307617 0.19611920416355133 0.03032362461090088 0.0947101041674614 -0.2400907427072525 -0.5571138858795166 -0.41577911376953125 0.12071110308170319 0.22269649803638458 0.4854636788368225 0.2533905506134033 0.1503380835056305 0.24709829688072205 0.16901668906211853 -0.2197595089673996 -0.2891060411930084 -0.6470653414726257 -0.169802725315094 -0.017573274672031403 0.11319628357887268 0.0034527182579040527 0.08236073702573776 0.8859158754348755 0.4562002122402191 0.42295175790786743 0.03728849068284035 0.1512618213891983 0.3200989365577698 0.36202743649482727 0.20084120333194733 0.23843251168727875 -0.0534253790974617 -0.18528737127780914 -0.34257063269615173 -0.06206445395946503 0.21330887079238892 0.26180779933929443 0.4343714714050293 0.3269796371459961 0.3722197711467743 0.21357649564743042 0.32106465101242065 -0.07708755880594254 -0.5077991485595703 -0.7635137438774109 -0.42415428161621094 -0.17085841298103333 0.002943526953458786 -0.014360994100570679 -0.1167922392487526 0.5420385599136353 0.7035129070281982 0.6347931623458862 0.5190924406051636 0.3105345368385315 0.5048574805259705 0.2435489445924759 0.1576613038778305 0.09200253337621689 0.1100829616189003 -0.11308661103248596 -0.08367922902107239 -0.09312822669744492 0.18909041583538055 0.3177371621131897 0.27237844467163086 0.43563929200172424 0.1705426722764969 0.14307492971420288 0.25650760531425476 -0.2913753092288971 -0.1025737002491951 -0.5262581706047058 0.05469602346420288 0.1127048209309578 0.01514512300491333 -0.02853287197649479 -0.00027359649538993835 -0.19937846064567566 0.15404003858566284 0.5865992903709412 0.10226462781429291 0.4686092138290405 0.3826223611831665 0.07176970690488815 0.16111673414707184 0.2474071979522705 0.15984894335269928 -0.16444219648838043 -0.3813992142677307 -0.187546968460083 0.049213800579309464 0.4025711119174957 0.5372065901756287 0.5485347509384155 0.06229059025645256 0.13882142305374146 0.026211414486169815 -0.029635798186063766 -0.2172853797674179 -0.5463860034942627 -0.16895203292369843 0.10573207587003708 -0.005546389147639275 -0.030701596289873123 0.01752305030822754 -0.04792925715446472 0.10427821427583694 -0.0330965556204319 0.013269309885799885 -0.0154110724106431 0.19729499518871307 0.2516458332538605 0.07703188061714172 0.005848863162100315 0.10002858191728592 -0.009915057569742203 -0.21948127448558807 -0.04660522937774658 0.28619834780693054 0.4958934485912323 0.3745883107185364 0.2883479595184326 0.06340628862380981 -0.05857142433524132 0.06382547318935394 -0.31787678599357605 -0.38424181938171387 -0.40124350786209106 -0.30443906784057617 -0.0230234544724226 -0.15494415163993835 0.012554153800010681 0.018424762412905693 -0.2854517698287964 -0.06343719363212585 0.024509986862540245 -0.1824580729007721 -0.15920200943946838 0.2491706758737564 0.2685440182685852 0.08375071734189987 0.004944469779729843 -0.07695547491312027 -0.15110597014427185 0.014069357886910439 0.17701855301856995 0.2504424750804901 0.1111627072095871 0.13530880212783813 -0.04899746552109718 -0.054559823125600815 -0.37907737493515015 -0.5287315249443054 -0.5684690475463867 -0.2591991126537323 -0.7542843222618103 -0.46192634105682373 -0.25012990832328796 -0.0723881721496582 0.20045115053653717 -0.14272916316986084 -0.2797813415527344 -0.27434042096138 -0.2870892286300659 -0.3676837980747223 -0.3832875192165375 0.06846872717142105 -0.25115731358528137 -0.42920365929603577 -0.3500584065914154 -0.23437494039535522 -0.3748115599155426 0.023076482117176056 0.019757460802793503 0.19795352220535278 0.0004965246771462262 -0.22627848386764526 -0.3252190947532654 -0.12573984265327454 -0.04072272777557373 -0.24537086486816406 -0.6914467215538025 -0.5025368332862854 -0.6801750063896179 -0.23799234628677368 0.2506486475467682 0.10336660593748093 0.030678067356348038 0.011789128184318542 0.19847869873046875 -0.3351195454597473 -0.4214916229248047 -0.4898586571216583 -0.4981539249420166 -0.42526882886886597 -0.987642228603363 -0.7112152576446533 -0.8384888172149658 -0.28266641497612 -0.2837512791156769 -0.008059914223849773 0.06898931413888931 -0.01805979572236538 0.03176503628492355 -0.09070209413766861 -0.28095850348472595 -0.22239206731319427 -0.5968261361122131 -0.5473024845123291 -0.8524235486984253 -0.5341808795928955 -0.4775492250919342 -0.07673770934343338 0.0568859800696373 0.004493836313486099 0.0008515939116477966 -0.0810311809182167 -0.09463206678628922 -0.38705915212631226 -0.3232850730419159 -0.7549957036972046 -0.935954749584198 -0.9754672646522522 -1.1394927501678467 -1.1476298570632935 -0.43611758947372437 -0.32888948917388916 -0.20841050148010254 -0.10014565289020538 0.12096493691205978 -0.14555823802947998 -0.2583271563053131 -0.23791471123695374 -0.3609054684638977 -0.13212846219539642 -0.26980289816856384 -0.6888247728347778 -0.14856275916099548 -0.222338005900383 -0.19309605658054352 -0.10388775914907455 -0.10202477127313614 0.03024786338210106 -0.012028686702251434 -0.01969514600932598 -0.2283862978219986 -0.35059577226638794 -0.4688167870044708 -0.7823000550270081 -1.231882095336914 -0.8956936597824097 -0.6584423780441284 -0.5722675323486328 -0.4768778383731842 0.021793756633996964 -0.12085215002298355 -0.25374820828437805 0.06193840503692627 -0.2892801761627197 -0.3064073324203491 -0.1619846224784851 -0.38481149077415466 -0.16496366262435913 -0.32584577798843384 -0.21520082652568817 -0.2649238705635071 -0.032492876052856445 0.35042428970336914 -0.3042328655719757 -0.3134949505329132 -0.011104192584753036 0.03401030972599983 -0.001946520060300827 -0.049959201365709305 -0.3284103274345398 -0.4433419108390808 -0.6975771188735962 -0.8228061199188232 -0.8432946801185608 -0.3466552793979645 -0.10008558630943298 -0.19545860588550568 0.031069718301296234 -0.20149298012256622 -0.28569909930229187 -0.14914175868034363 -0.005773105658590794 -0.3954632580280304 -0.23833060264587402 -0.36841094493865967 -0.1738017052412033 -0.030668148770928383 0.05805741250514984 -0.05042433366179466 0.0009231155854649842 0.21929949522018433 -0.15911591053009033 -0.48567405343055725 0.018552027642726898 0.0277552492916584 -0.02382417395710945 -0.14368344843387604 -0.13034260272979736 -0.23651613295078278 -0.4097738564014435 -0.32832011580467224 -0.14654485881328583 -0.2919228672981262 0.11494455486536026 0.0564570426940918 -0.2522870898246765 -0.10602428019046783 -0.3553659915924072 -0.22861512005329132 -0.17055371403694153 -0.31719547510147095 -0.11866728216409683 0.0854482352733612 -0.018938811495900154 0.18951676785945892 -0.14551791548728943 0.22562174499034882 0.21533718705177307 0.349164754152298 -0.11060645431280136 -0.22990238666534424 0.0354556180536747 0.012615405023097992 0.009890489280223846 -0.13799692690372467 -0.17891092598438263 -0.03782597929239273 0.08422882109880447 0.10995685309171677 0.13697674870491028 -0.19892583787441254 0.031066764146089554 0.013941527344286442 -0.12186624109745026 -0.22410044074058533 -0.2790386378765106 -0.1939464807510376 -0.2284763604402542 -0.006242452654987574 0.1339944750070572 0.011227836832404137 0.07395805418491364 -0.0949619933962822 0.22755703330039978 0.34849560260772705 0.30316662788391113 0.38360482454299927 0.05009658262133598 -0.03387542441487312 -0.01932094432413578 0.001288633793592453 0.01149851456284523 -0.1102033406496048 0.036798134446144104 0.018016302958130836 0.1998760998249054 0.5429932475090027 0.5043063759803772 0.39540648460388184 0.4346916973590851 0.2546100914478302 0.22448013722896576 0.33592984080314636 0.09381342679262161 0.07130319625139236 0.16628174483776093 0.3563249707221985 0.5084937810897827 0.2833190858364105 0.3055257499217987 0.31421905755996704 0.4013127088546753 0.4637782573699951 0.34688660502433777 0.22438940405845642 -0.027574267238378525 -0.0709596797823906 0.0028613805770874023 0.019871793687343597 -0.005664847791194916 -0.007670454680919647 -0.035180285573005676 0.2821943461894989 1.0154430866241455 1.3795579671859741 1.267313003540039 2.3329782485961914 2.149728298187256 1.769891619682312 1.257222294807434 1.7107651233673096 1.0996967554092407 0.9215998649597168 1.6386710405349731 1.4869283437728882 0.778231143951416 0.45435893535614014 0.40526625514030457 0.7849918603897095 0.20395055413246155 0.2631518840789795 0.4308607280254364 -0.025456387549638748 0.2507026791572571 0.0330020971596241 -0.016496220603585243 0.033012066036462784 -0.019659975543618202 0.005366388708353043 0.021526958793401718 0.003541223704814911 -0.10123728960752487 0.4395614564418793 0.3714107275009155 0.8570870757102966 1.1641596555709839 1.2591195106506348 1.2061012983322144 1.5737698078155518 1.4023754596710205 1.8500953912734985 1.7781120538711548 1.739884853363037 1.8957117795944214 1.2801344394683838 0.6045021414756775 0.40660953521728516 0.35112980008125305 0.3506854772567749 0.2737872898578644 -0.03429817780852318 0.02431173250079155 0.0056198276579380035 -0.034962642937898636
0.010498229414224625 0.0017480626702308655 0.0029115714132785797 -0.010913113132119179 0.02502535656094551 -0.005936490371823311 -0.01225653849542141 0.0041007474064826965 -0.028152650222182274 -0.01973336935043335 0.014915011823177338 0.009812243282794952 0.017612431198358536 0.00911577045917511 0.020682644098997116 -0.014705793932080269 0.004570096731185913 -0.020336249843239784 0.005463875830173492 0.025435402989387512 -0.003761760890483856 -0.022973299026489258 0.0038790442049503326 -0.011319003999233246 0.0018147602677345276 0.015384100377559662 0.004112202674150467 -0.010251985862851143 -0.016710009425878525 -0.01745484210550785 0.034605856984853745 -0.0017896853387355804 0.0189504474401474 0.020749185234308243 0.01878068968653679 -0.008659856393933296 0.02035873755812645 -0.049169450998306274 -0.03060171939432621 -0.03519594296813011 -0.0792507454752922 0.04779868200421333 -0.034449975937604904 0.05485208332538605 0.029805142432451248 -0.0003988631069660187 -0.027089763432741165 -0.007571624591946602 -0.014276295900344849 -0.005068911239504814 0.005804549902677536 -0.03514295443892479 -0.01308896392583847 0.012003131210803986 -0.025835569947957993 -0.029556110501289368 0.02104811742901802 -0.03447290137410164 0.008179720491170883 -0.0005318783223628998 -0.00591370090842247 0.003928430378437042 0.012064993381500244 -0.027448579668998718 -0.03192531317472458 0.006218314170837402 0.12332271039485931 -0.015884891152381897 -0.010324617847800255 0.2342483401298523 0.05968410149216652 -0.06454150378704071 0.11994196474552155 -0.09616111218929291 -0.05766011402010918 -0.16833245754241943 -0.1167258694767952 -0.03385140374302864 0.030972454696893692 -0.00760204903781414 0.03377709165215492 -0.023482579737901688 -0.006949884817004204 0.020121317356824875 -0.0009843707084655762 0.0035188868641853333 0.029805827885866165 -0.020394330844283104 -0.010723650455474854 -0.0404767245054245 -0.06302087008953094 -0.037225961685180664 -0.14237023890018463 -0.2183867245912552 -0.1572408676147461 -0.5472163558006287 -0.6469250321388245 -0.8766267895698547 -0.3523278832435608 -0.3449133038520813 -0.28896018862724304 -0.6266213059425354 -0.6838699579238892 -0.2504621148109436 -0.4426535665988922 -0.4097115099430084 -0.20537146925926208 -0.12594090402126312 -0.302979975938797 0.023167457431554794 -0.01190793514251709 0.0018050596117973328 -0.011731833219528198 -0.008701678365468979 0.02027677744626999 0.02811041846871376 0.10671214759349823 0.023434966802597046 -0.12677936255931854 -0.011738608591258526 -0.21845605969429016 -0.7313679456710815 -0.5585458278656006 -0.15806296467781067 0.29322826862335205 0.23076696693897247 0.08308589458465576 0.4108189642429352 0.15367579460144043 -0.2262784242630005 -0.05917311832308769 -0.05883001908659935 0.29995962977409363 0.5644835233688354 0.17818990349769592 -0.2404080480337143 -0.08646026253700256 -0.16560912132263184 0.02783806249499321 0.024523530155420303 -0.003530677407979965 0.02864554151892662 0.08037339150905609 -0.041296813637018204 -0.01424127072095871 -0.1958826631307602 -0.0827985629439354 -0.4444613754749298 -0.5524232983589172 -0.490703284740448 -0.7248008847236633 -0.12358874082565308 0.028314314782619476 0.1065274253487587 0.10427980870008469 -0.045982249081134796 -0.06864040344953537 -0.1059691533446312 -0.2215794175863266 0.11650688201189041 0.14346067607402802 0.25123316049575806 0.14466632902622223 0.07449233531951904 -0.37277883291244507 -0.16084681451320648 0.09460202604532242 -0.02272714674472809 -0.03367786109447479 -0.015257908031344414 0.05784366652369499 -0.01590549759566784 0.1469775289297104 -0.3687133491039276 -0.4918842911720276 -0.25249481201171875 -0.3542770445346832 -0.8184269666671753 -1.3390945196151733 -0.40548941493034363 0.033636920154094696 -0.12936727702617645 -0.11761031299829483 -0.06449659913778305 -0.258710652589798 -0.05321475863456726 -0.23871517181396484 0.1193656474351883 -0.12731805443763733 -0.04039878770709038 -0.18957920372486115 -0.3362464904785156 -0.2543642818927765 -0.24882382154464722 0.041311439126729965 0.042949575930833817 -0.015454348176717758 0.028136972337961197 0.053197890520095825 0.06327871233224869 0.2603115439414978 -0.24727763235569 -0.5072118639945984 -0.4069804549217224 -0.5631716847419739 -0.8413592576980591 -0.9104472398757935 -0.1675167977809906 -0.07859332114458084 -0.21741946041584015 -0.011534479446709156 -0.10982365906238556 -0.18422548472881317 -0.12425655871629715 -0.07111296057701111 0.017253445461392403 0.027717534452676773 -0.14283224940299988 -0.6371650099754333 -0.43786102533340454 -0.36553284525871277 -0.1330510973930359 -0.00408888328820467 0.01838490553200245 0.014666784554719925 -0.021256720647215843 -0.057504281401634216 0.04703186824917793 0.09856556355953217 -0.09786009788513184 -0.2896832525730133 -0.4060915410518646 -0.4686424434185028 -0.6755781173706055 -0.7545067667961121 -0.4967043101787567 -0.2531423270702362 0.027868038043379784 0.05747010558843613 0.13135448098182678 0.03148273751139641 0.004685972351580858 0.0013413932174444199 -0.025339694693684578 -0.14079102873802185 -0.4373791515827179 -0.6953198909759521 -0.4465995728969574 -0.49060365557670593 -0.26131734251976013 -0.04709111526608467 0.018551606684923172 -0.03384007513523102 0.03241204842925072 0.052047766745090485 0.06431148201227188 0.1024806797504425 -0.1445508897304535 -0.4644928276538849 -0.39822864532470703 -0.40889647603034973 -0.6936898231506348 -0.5462756752967834 -0.5081949830055237 -0.3132893741130829 0.06764005124568939 0.3581139147281647 0.07461170107126236 0.03417649492621422 0.16049358248710632 -0.07958030700683594 -0.05871318280696869 -0.288343220949173 -0.719418466091156 -0.4216609597206116 -0.5899686217308044 -0.28979724645614624 -0.0864257887005806 -0.08711898326873779 -0.0031273551285266876 -0.02166922390460968 0.019523557275533676 -0.0024114474654197693 0.023593083024024963 0.09516249597072601 -0.18206845223903656 -0.0006864432943984866 -0.12408872693777084 -0.40687617659568787 -0.4752981960773468 -0.7251002192497253 -0.49438491463661194 -0.08953892439603806 0.12479342520236969 0.2635861933231354 0.16510437428951263 0.3833281397819519 -0.04527517035603523 -0.31459957361221313 -0.32562726736068726 -0.8199594020843506 -0.48808375000953674 -0.15073780715465546 -0.22511664032936096 -0.11323140561580658 -0.20346814393997192 0.1577596813440323 0.10423363745212555 -0.026642732322216034 0.06431127339601517 0.023233558982610703 0.10231529921293259 0.007902308367192745 -0.1392524242401123 -0.0010011153062805533 -0.184891477227211 -0.35891640186309814 -0.7125689387321472 -0.9618954062461853 -0.26883333921432495 -0.35530248284339905 0.04999823868274689 0.44161802530288696 0.4368739128112793 0.099408820271492 0.1031658798456192 -0.4572475850582123 -0.5176791548728943 -0.38416242599487305 -0.27565786242485046 -0.13261321187019348 -0.12934510409832 -0.06338822096586227 -0.10799825936555862 -0.012294028885662556 0.03307820111513138 0.01603882759809494 0.02196531370282173 0.0986669585108757 0.03834964707493782 0.09948109835386276 -0.008520499803125858 0.16321462392807007 0.18250715732574463 -0.41121771931648254 -0.5566422939300537 -0.6111373901367188 -0.652944803237915 -0.10229913145303726 0.13482025265693665 0.49208053946495056 0.3070119023323059 0.05296218767762184 -0.10108776390552521 -0.7357476353645325 -0.602039098739624 -0.3603377342224121 -0.06391946971416473 -0.12287816405296326 -0.008403223939239979 -0.13733206689357758 -0.07274644076824188 -0.04422909766435623 -0.08584125339984894 0.004730105400085449 0.00808883085846901 0.087499238550663 -0.0478367917239666 -0.07728328555822372 -0.10921285301446915 0.037786759436130524 -0.05208666995167732 -0.2884027659893036 -0.18890444934368134 -0.3963622450828552 -0.7404029369354248 -0.14183083176612854 0.14386674761772156 0.3232247233390808 0.23773546516895294 0.1376994252204895 -0.3049153685569763 -0.595085859298706 -0.4148758053779602 -0.4014337658882141 -0.02574091963469982 -0.13823604583740234 0.039576683193445206 0.022904274985194206 0.13668297231197357 0.11494437605142593 0.006709955632686615 -0.021424345672130585 0.004831962287425995 -0.011418789625167847 -0.04913134500384331 -0.019089212641119957 -0.11167217046022415 -0.1884259581565857 -0.20871542394161224 -0.11586499214172363 -0.3024958670139313 -0.5943794250488281 -0.8564041256904602 0.02785380184650421 0.22676008939743042 0.24127259850502014 0.25937706232070923 -0.09113927185535431 -0.3624466359615326 -0.6104612946510315 -0.25056278705596924 -0.3083086311817169 -0.36003434658050537 -0.011645556427538395 -0.15813906490802765 -0.07540342211723328 0.12209929525852203 0.011240564286708832 -0.016498154029250145 -0.01608475297689438 -0.011697905138134956 -0.026238612830638885 0.1986299604177475 0.018764737993478775 -0.23288850486278534 -0.2290535271167755 -0.1239955946803093 -0.15017861127853394 -0.2509312331676483 -0.8135383725166321 -0.2512598931789398 -0.14551937580108643 0.24884599447250366 0.41096773743629456 0.12062359601259232 0.06650199741125107 -0.6113590002059937 -0.5826473832130432 -0.46528565883636475 -0.14644721150398254 -0.032956186681985855 -0.10609050840139389 0.025866473093628883 -0.028958197683095932 0.2847960293292999 -0.04743988811969757 -0.03332386910915375 0.03486141189932823 0.0035695270635187626 0.03343917056918144 0.03911720961332321 -0.13417045772075653 -0.17309653759002686 -0.33980900049209595 -0.37620219588279724 -0.2692433297634125 -0.7123982310295105 -0.5341176986694336 -0.4410947561264038 0.2622206509113312 0.20463970303535461 0.23666583001613617 -0.060634106397628784 -0.5611823201179504 -0.6409172415733337 -0.6890554428100586 -0.5097174644470215 -0.4298137128353119 -0.26580125093460083 -0.2704576551914215 -0.11829718202352524 -0.03797583654522896 0.1017279326915741 0.11630263179540634 0.02848009392619133 -0.014626545831561089 0.22522394359111786 0.02501068264245987 -0.013977735303342342 -0.0774700939655304 -0.2841161787509918 -0.4926876723766327 -0.5666268467903137 -0.3481723368167877 -0.3201603889465332 -0.012085498310625553 -0.1888209879398346 0.20773945748806 0.40698379278182983 0.16967076063156128 -0.14766202867031097 -0.29358744621276855 -0.8659396767616272 -0.65108323097229 -0.2129121571779251 -0.3946964740753174 -0.2849036157131195 -0.18554118275642395 0.18136313557624817 -0.12975722551345825 0.0521349161863327 0.08675341308116913 0.1929771900177002 0.016160637140274048 0.005296293646097183 0.001083383453078568 -0.16732199490070343 -0.06638490408658981 -0.31313827633857727 -0.49268272519111633 -0.6459565758705139 -0.6619151830673218 -0.3858060836791992 -0.1487562209367752 0.2617987096309662 0.25043225288391113 0.36729535460472107 0.1112799271941185 -0.22600479423999786 -0.016297876834869385 -0.3728805184364319 -0.666141152381897 -0.3908386528491974 -0.49534961581230164 -0.047379739582538605 -0.1592121422290802 -0.18740935623645782 -0.060138460248708725 -0.05066884309053421 0.08556770533323288 0.3022613525390625 0.022459179162979126 0.013148728758096695 -0.08578751981258392 -0.032543208450078964 -0.09267652034759521 -0.5655674934387207 -0.7352763414382935 -0.5811594724655151 -0.08554869890213013 0.19204989075660706 -0.047931358218193054 -0.027700675651431084 0.13664628565311432 0.37931230664253235 0.15777674317359924 -0.08179448544979095 -0.3878501057624817 -0.3840969204902649 -0.6013525128364563 -0.28047624230384827 -0.4513031840324402 -0.6555343866348267 -0.3850325047969818 -0.30323418974876404 -0.07722748070955276 0.07929778844118118 0.1415613740682602 0.16917073726654053 -0.03431086242198944 0.005016021430492401 -0.03430785611271858 -0.07690717279911041 -0.15152062475681305 -0.4207977056503296 -0.1765122413635254 -0.3567696213722229 -0.25646600127220154 0.03350979462265968 -0.15046226978302002 -0.03718162328004837 -0.06570977717638016 -0.01839100942015648 0.22119784355163574 -0.019615890458226204 -0.1254502385854721 -0.18017613887786865 -0.10010838508605957 -0.12201756983995438 -0.5983842015266418 -0.44924208521842957 -0.483210027217865 -0.12122792750597 0.07643423229455948 0.14244745671749115 0.18065975606441498 -0.01862737163901329 -0.009799383580684662 -0.03341159224510193 0.0016053708968684077 -0.056059639900922775 -0.43386125564575195 -0.14508488774299622 -0.19834695756435394 0.13761690258979797 0.09341228008270264 -0.18858952820301056 0.08505591750144958 -0.196230947971344 -0.14270420372486115 -0.08028355240821838 0.04662509635090828 -0.04377758502960205 0.4107174575328827 0.06366650015115738 -0.40031898021698 -0.6797317862510681 -0.4492189884185791 -0.34527698159217834 -0.3697507381439209 -0.09727159142494202 -0.03801649436354637 0.06751547008752823 0.19636057317256927 0.01771613582968712 0.026705356314778328 -0.03412223607301712 -0.07486627250909805 -0.0481833815574646 -0.3333851993083954 0.06712491065263748 -0.11631349474191666 -0.0022534425370395184 0.16980111598968506 0.06721075624227524 0.1577385663986206 -0.18969056010246277 -0.11107203364372253 -0.36538875102996826 -0.17345455288887024 -0.011667394079267979 0.004139006603509188 0.33039209246635437 -0.1803330034017563 0.00851721316576004 -0.3465510606765747 -0.4993976950645447 0.003936522640287876 -0.029369458556175232 -0.008286071941256523 0.06528659909963608 0.0685901939868927 0.0009424127638339996 -0.002193741500377655 0.02273818477988243 0.03376568481326103 0.019955551251769066 -0.060043513774871826 -0.15149956941604614 0.18624046444892883 0.360058456659317 0.4408546984195709 0.08957213908433914 0.08524753898382187 0.11978239566087723 -0.14115774631500244 -0.14514994621276855 -0.023536067456007004 -0.08174289017915726 0.29477977752685547 0.5745261311531067 -0.07604745030403137 -0.21027466654777527 -0.18003904819488525 -0.14061768352985382 -0.1766524612903595 -0.10430989414453506 -0.05463885888457298 0.06786279380321503 0.1971837729215622 0.016718387603759766 0.006667613983154297 0.004460632801055908 0.026734575629234314 0.0520671047270298 -0.25689443945884705 0.1278318613767624 0.21020987629890442 -0.3618672490119934 0.005137295927852392 -0.10484229773283005 -0.4250769317150116 0.05934498831629753 -0.4778139591217041 -0.2922666072845459 -0.11991220712661743 -0.08255718648433685 -0.0682397186756134 -0.012023605406284332 0.10601145029067993 -0.05523095279932022 0.0188268031924963 -0.13904204964637756 -0.021239206194877625 0.03487246856093407 -0.016865527257323265 0.008215244859457016 0.07438865303993225 -0.00926896184682846 0.00015911832451820374 -0.03465541452169418 -0.022535260766744614 -0.053369972854852676 -0.11510029435157776 -0.10212840884923935 -0.25728410482406616 -0.506454348564148 -0.4099990427494049 -0.5306708216667175 -0.9373763203620911 -0.8220824599266052 -0.6801734566688538 -0.23216161131858826 -0.5256415605545044 -0.44852912425994873 -0.41505590081214905 -0.49594980478286743 -0.23820680379867554 -0.13885745406150818 -0.014463973231613636 -0.056142307817935944 -0.010190594010055065 -0.005702866241335869 0.03908585011959076 -0.020662445574998856 0.025651350617408752 -0.025195561349391937 0.02398832142353058 -0.029787780717015266 -0.0017841197550296783 -0.0027391836047172546 0.06675812602043152 -0.027461783960461617 -0.016543829813599586 -0.1353571116924286 -0.07754655182361603 -0.2916692793369293 -0.1733902394771576 -0.3712591528892517 -0.2855861186981201 -0.29501187801361084 -0.2716813385486603 -0.15096428990364075 -0.25317153334617615 -0.27280646562576294 -0.040757566690444946 -0.02443527802824974 -0.05493786185979843 -0.029086744412779808 0.002469956874847412 0.02686881646513939 0.04237973690032959 -0.01938333734869957 -0.03006436675786972 0.03243735060095787 -0.0038458742201328278 0.008504267781972885 -0.029715122655034065 0.013202425092458725 -0.020192628726363182 -0.001963723450899124 -0.03276808187365532 0.0034362711012363434 0.01013512909412384 0.03286616876721382 -0.17117942869663239 -0.12172973901033401 0.024957560002803802 -0.022685473784804344 0.03446132317185402 0.025198590010404587 0.027434419840574265 -0.018036121502518654 -0.04744787514209747 -0.03092106804251671 0.016338691115379333 -0.0321660190820694 -0.012465715408325195 0.01310041919350624 -0.02068595588207245 0.022587768733501434 -0.026636719703674316 0.006273265928030014
0.006990596652030945 0.02246231958270073 -0.017304791137576103 -0.018980009481310844 0.029587294906377792 -0.0046959444880485535 -0.020020604133605957 0.0346788726747036 0.03558747097849846 0.015771038830280304 0.016801778227090836 0.005416613072156906 0.015143129974603653 -0.00595685513690114 0.019766997545957565 -0.041333213448524475 0.027916405349969864 -0.02808467485010624 0.030952345579862595 -0.02523125149309635 -0.02200637198984623 -0.01762348972260952 -0.017764156684279442 -0.020378917455673218 -0.03106747940182686 -0.001368194818496704 0.0031910762190818787 0.014336366206407547 -0.02284546196460724 -0.03176979720592499 0.021078679710626602 -0.014009034261107445 0.010961085557937622 -0.032255545258522034 -0.011590085923671722 0.034488510340452194 0.008169259876012802 -0.008539196103811264 0.01147657260298729 0.06944002956151962 0.002992775524035096 -0.03906009718775749 -0.1054772138595581 -0.14805269241333008 0.015391409397125244 -0.10664110630750656 0.00667085126042366 0.010479485616087914 0.07561704516410828 0.021815422922372818 0.01976119726896286 0.0015005730092525482 -0.019055968150496483 0.011702388525009155 0.017138071358203888 0.030622754245996475 -0.014793431386351585 0.0048223137855529785 0.021171774715185165 0.033040087670087814 -0.01766122691333294 -0.027335969731211662 -0.11769449710845947 0.10327471792697906 -0.10692872107028961 -0.1780332326889038 -0.1429494023323059 -0.3061216473579407 -0.44889578223228455 -0.45260027050971985 -0.5251306295394897 -0.4198261797428131 -0.6745529770851135 -0.6167728900909424 -0.26174458861351013 -0.1545376181602478 -0.47478893399238586 -0.43676358461380005 -0.10084427148103714 -0.14496047794818878 0.029230695217847824 -0.012218445539474487 -0.020383674651384354 -0.01995338313281536 0.01868400350213051 -0.03331174701452255 0.009720683097839355 0.02857668325304985 -0.02488546259701252 -0.09788981080055237 0.02813652716577053 0.06685326248407364 -0.40039750933647156 -0.6586723923683167 -0.3089315891265869 -0.6685587763786316 -0.6714197397232056 -0.522469162940979 -0.6662827730178833 -0.40821465849876404 -0.07887505739927292 -0.42693230509757996 -0.583297073841095 -0.8147251009941101 -0.39793670177459717 -0.7220401167869568 -0.5437138080596924 -0.180543452501297 -0.4480943977832794 -0.3864688277244568 -0.004652181640267372 0.016621772199869156 0.028082195669412613 -0.013332502916455269 -0.06866338849067688 0.03754830360412598 -0.021107060834765434 -0.0414327047765255 -0.129169762134552 -0.28313255310058594 -0.36406999826431274 -0.33157581090927124 -0.6142938733100891 -0.41451460123062134 -0.4114670157432556 -0.3314002454280853 -0.21425242722034454 0.20188122987747192 -0.2905876338481903 -0.007974214851856232 -0.24896015226840973 -0.04973548278212547 -0.7594743371009827 -0.4767768681049347 0.13342680037021637 0.585499107837677 -0.15896515548229218 -0.23667463660240173 0.040550850331783295 0.003889806568622589 -0.025416430085897446 -0.019702546298503876 0.031247848644852638 0.15576492249965668 -0.2723434269428253 -0.49011918902397156 -0.40107300877571106 -0.5226728916168213 -0.5251137018203735 -0.28979751467704773 -0.5438079833984375 -0.4662077724933624 0.0002897530503105372 -0.07437558472156525 -0.02829390950500965 -0.014616099186241627 0.10291650146245956 -0.05458570271730423 0.08900386095046997 -0.06549011915922165 -0.006693575065582991 0.18919534981250763 0.04516817256808281 -0.0007532837335020304 0.0011387604754418135 0.21939590573310852 -0.13376227021217346 0.007981106638908386 0.015592966228723526 -0.02380029857158661 0.07370349764823914 -0.12969620525836945 -0.13337257504463196 -0.530485987663269 -0.03953862190246582 -0.34710389375686646 -0.43053504824638367 -0.3565208315849304 -0.09923375397920609 -0.33498936891555786 -0.06716238707304001 -0.052410054951906204 -0.06156874820590019 0.04370233044028282 -0.17105163633823395 0.16752876341342926 0.04145016521215439 0.05462631583213806 0.11536706984043121 -0.06457620114088058 0.2724909484386444 0.06418649107217789 0.2652934789657593 0.438726007938385 0.19368720054626465 0.42253783345222473 -0.01040319912135601 -0.08680194616317749 -0.014327548444271088 -0.3302174210548401 -0.16424092650413513 -0.2024640440940857 -0.20336012542247772 -0.12300499528646469 -0.3005019724369049 -0.43702638149261475 0.06446417421102524 -0.07819338142871857 0.26688525080680847 -0.0680367723107338 0.024508127942681313 -0.050749436020851135 0.23675131797790527 0.17502516508102417 0.19240406155586243 0.22156549990177155 -0.16031722724437714 0.16531193256378174 0.0033573294058442116 0.23737893998622894 0.177684485912323 0.2723218500614166 0.21681159734725952 0.21600341796875 0.0036486349999904633 -0.1201593354344368 -0.016283854842185974 -0.39178407192230225 -0.4570067524909973 -0.017704453319311142 -0.5019182562828064 -0.28704556822776794 -0.14099732041358948 -0.0008943993598222733 -0.18015778064727783 -0.028380120173096657 0.162467822432518 -0.022390512749552727 0.3371014893054962 0.10001052170991898 0.12254593521356583 0.018554221838712692 0.05640234798192978 0.26514023542404175 0.20991384983062744 -0.033821504563093185 -0.02446681447327137 0.10500581562519073 0.4362218976020813 0.4591751992702484 0.05865739658474922 0.13208909332752228 -0.035500552505254745 0.012133773416280746 -0.028777942061424255 -0.10301310569047928 -0.26777103543281555 -0.43836766481399536 0.03617394343018532 -0.08288682252168655 -0.1362302005290985 -0.2420232594013214 0.16050831973552704 0.09120365232229233 0.008897489868104458 0.01928306184709072 -0.022493652999401093 -0.237903892993927 -0.033056143671274185 0.10400336235761642 0.3246413469314575 0.3875313699245453 0.31447312235832214 0.31456947326660156 -0.07132113724946976 0.509223222732544 0.544704020023346 0.8301858305931091 0.6082543730735779 -0.06265461444854736 -0.017624417319893837 0.03042922541499138 -0.03434368968009949 -0.5068097710609436 -0.34865662455558777 -0.505948543548584 0.09802454710006714 0.07414664328098297 0.06820373237133026 -0.0239187553524971 0.20707812905311584 -0.08790802210569382 0.09540314227342606 -0.0033702515065670013 0.01227537915110588 -0.0759652704000473 -0.3161035180091858 -0.2055736780166626 0.3120783865451813 0.3958214819431305 0.08040793985128403 0.09073550999164581 0.06738018244504929 0.37350842356681824 0.25397008657455444 0.8137000799179077 0.6976607441902161 0.15450456738471985 -0.030346497893333435 -0.002256501466035843 0.04507175087928772 -0.3726646602153778 -0.45765429735183716 -0.36561495065689087 -0.10017175227403641 -0.06093548610806465 0.13742052018642426 -0.07572276890277863 0.09924563765525818 0.13664984703063965 0.05546523258090019 0.2586239278316498 -0.22172811627388 -0.4028996527194977 -0.7426279783248901 -0.5965498089790344 -0.14195913076400757 0.016587208956480026 -0.04939229413866997 0.13266992568969727 0.030698366463184357 0.38870173692703247 0.18928423523902893 -0.18448080122470856 0.15105783939361572 0.12523479759693146 -0.021600043401122093 0.10979306697845459 0.0402764230966568 -0.3126799762248993 -0.6517504453659058 -0.02852870337665081 0.12270166724920273 -0.09814629703760147 0.19756709039211273 0.11832612752914429 0.20320048928260803 0.3785179555416107 0.3561890721321106 -0.04882849380373955 -0.4594893157482147 -0.9817986488342285 -1.2092241048812866 -0.8117013573646545 -0.3453221917152405 -0.08078791946172714 0.173401340842247 0.1758173257112503 0.03648398816585541 0.19917990267276764 0.5385375618934631 -0.2570623457431793 -0.30931389331817627 -0.020663350820541382 -0.01510615460574627 -0.006692707538604736 0.14309395849704742 -0.151149719953537 -0.20997485518455505 -0.009637207724153996 0.21238133311271667 0.3268631398677826 0.23141342401504517 0.3533075451850891 0.4237285554409027 0.28455427289009094 -0.1490900069475174 -0.30287736654281616 -0.746452271938324 -0.9431557059288025 -1.0301673412322998 -0.6311564445495605 -0.5294035077095032 -0.3569536507129669 -0.00010004117211792618 -0.07276593893766403 0.32733550667762756 0.23797506093978882 0.36664333939552307 -0.24887336790561676 -0.06108362600207329 -0.005551282316446304 0.012666977941989899 0.02026485651731491 0.17535404860973358 -0.1506791114807129 -0.5132104158401489 -0.0958128571510315 -0.06108361855149269 -0.053706955164670944 0.2967391014099121 0.3462650179862976 0.2894819676876068 0.1561214029788971 -0.39545392990112305 -0.1122087687253952 -0.5573098063468933 -0.38837113976478577 -0.6069088578224182 -0.5356990694999695 -0.6897295713424683 -0.4245670437812805 -0.052649009972810745 0.1869603842496872 -0.2090723067522049 0.47883206605911255 0.3926391899585724 -0.6626560688018799 -0.14683794975280762 -0.016515230759978294 -0.015249891206622124 0.023551736027002335 0.0734337791800499 -0.3676632344722748 -0.2541739344596863 -0.014034828171133995 -0.006720381323248148 0.008904957212507725 0.10587041079998016 0.22369374334812164 0.06704571843147278 -0.35848984122276306 -0.30348366498947144 -0.24261435866355896 -0.5296330451965332 -0.6573032140731812 -0.6248668432235718 -0.5171674489974976 -0.40975379943847656 -0.06135772168636322 -0.10578162968158722 0.13234037160873413 0.29340994358062744 0.5950185656547546 0.4941762685775757 -0.4148913323879242 -0.027544263750314713 -0.029091965407133102 0.018032614141702652 0.01351713016629219 0.11858512461185455 -0.19326111674308777 0.21963530778884888 0.2736954092979431 -0.0404052808880806 0.34854504466056824 0.03821636736392975 0.16879989206790924 -0.25452330708503723 -0.679526150226593 -0.8121294379234314 -0.7076150178909302 -0.6574008464813232 -0.6591735482215881 -0.6617352962493896 -0.3292166590690613 -0.1632148176431656 0.006465265993028879 0.030952930450439453 0.07409527152776718 0.16916312277317047 0.20544248819351196 0.24502140283584595 -0.5551374554634094 -0.25186288356781006 0.01782071590423584 -0.03367520123720169 0.0234721340239048 0.11966768652200699 -0.4212327301502228 0.29420068860054016 0.03460609167814255 0.29142871499061584 0.12817692756652832 0.08511247485876083 0.0011153974337503314 -0.3710057735443115 -0.8561867475509644 -0.9537606835365295 -0.7557123303413391 -0.4972335398197174 -0.4023686945438385 -0.3096245527267456 -0.19658523797988892 0.021666817367076874 -0.12010856717824936 0.0882139727473259 0.13420748710632324 0.12591801583766937 0.16490764915943146 -0.07761740684509277 -0.48278823494911194 -0.2594495415687561 -0.17461949586868286 0.02087332308292389 0.02947164699435234 -0.16003867983818054 -0.4616408050060272 0.016883444041013718 0.12786881625652313 0.2910595238208771 0.3483843207359314 0.17682293057441711 0.20255011320114136 -0.23443388938903809 -0.5521657466888428 -0.61239093542099 -0.7986413836479187 -0.41411978006362915 -0.2522663176059723 -0.08141577243804932 0.22051864862442017 0.3223564326763153 -0.2143505960702896 0.07127145677804947 -0.12359728664159775 0.08964422345161438 0.24351932108402252 -0.20268191397190094 -0.23261401057243347 -0.3637503683567047 -0.09750030189752579 0.0026328004896640778 -0.012643234804272652 0.057536959648132324 -0.2183445245027542 0.08902861177921295 0.17934314906597137 0.22314418852329254 0.15612654387950897 0.08997859805822372 0.21566961705684662 0.3310556411743164 0.06985188275575638 -0.4136122167110443 -0.30220499634742737 -0.10918115079402924 -0.033245570957660675 0.11333884298801422 -0.15145345032215118 0.3375842273235321 -0.032094527035951614 -0.05711982771754265 -0.0580161027610302 -0.2746833264827728 -0.20500651001930237 -0.28242605924606323 -0.374582976102829 0.022842738777399063 -0.08478520810604095 -0.0289177093654871 -0.030831091105937958 -0.09176278114318848 -0.20357158780097961 0.025661665946245193 0.21621087193489075 0.14614275097846985 0.17305625975131989 0.30217981338500977 0.26635923981666565 0.6922403573989868 0.2235744446516037 -0.08825599402189255 0.026370864361524582 -0.1331043243408203 -0.2301151007413864 -0.018586788326501846 0.15165525674819946 0.026615353301167488 0.10226047784090042 0.17541775107383728 0.03838541358709335 -0.2519858479499817 -0.35770371556282043 -0.438639760017395 -0.16760532557964325 0.02700757421553135 -0.087033212184906 0.005505699664354324 -0.1658972203731537 -0.21345241367816925 -0.3806475102901459 -0.22588852047920227 -0.08739081025123596 -0.01154501922428608 0.2127714455127716 0.0808437243103981 0.25475162267684937 0.1374058723449707 0.009583010338246822 0.07960359007120132 0.10692518949508667 0.15452690422534943 -0.11379649490118027 -0.07334894686937332 0.24050095677375793 -0.09515837579965591 -0.040022365748882294 0.07956115156412125 0.054844118654727936 0.017400410026311874 -0.24608877301216125 -0.30006396770477295 -0.23113001883029938 0.27539777755737305 -0.007656864821910858 0.033422987908124924 0.01193886250257492 -0.11208179593086243 0.0024748898576945066 -0.20284579694271088 0.20541590452194214 -0.10889914631843567 0.21196772158145905 0.18094231188297272 0.3146602213382721 0.11596683412790298 0.07389294356107712 0.07512226700782776 0.08358050137758255 0.10760775208473206 -0.10139986872673035 -0.01662328839302063 -0.11459257453680038 -0.1431383639574051 0.0191196259111166 0.04412572830915451 0.0033120783045887947 -0.35504212975502014 -0.24753516912460327 0.16694232821464539 -0.036047279834747314 0.11754127591848373 -0.01624283753335476 -0.01844102144241333 -0.011997448280453682 -0.05296269431710243 -0.35350871086120605 -0.4276893734931946 -0.38347214460372925 -0.07344119995832443 -0.07681568711996078 -0.013867401517927647 -0.08032910525798798 0.017823264002799988 0.21694062650203705 0.1780826598405838 0.4199378788471222 -0.02810811437666416 0.028282098472118378 0.14551903307437897 0.15152424573898315 -0.12943169474601746 -0.23373091220855713 -0.536576509475708 -0.4370077848434448 -0.46023276448249817 -0.26953068375587463 -0.18675309419631958 -0.1507624387741089 0.022632941603660583 0.03375071659684181 0.018248122185468674 0.01993459090590477 0.022275611758232117 0.0035206894390285015 -0.03931456059217453 -0.19951573014259338 -0.5592693090438843 -0.3884471356868744 -0.312046617269516 -0.28772401809692383 -0.21335367858409882 0.10107998549938202 0.10888475179672241 0.10625823587179184 0.20373336970806122 0.18577274680137634 -0.22208592295646667 -0.20771408081054688 -0.034202735871076584 -0.15110842883586884 -0.5683894157409668 -0.5611335635185242 -0.21940483152866364 -0.030952418223023415 -0.0009689265862107277 0.09243931621313095 -0.02520199865102768 0.012191589921712875 -0.03336797282099724 0.01409873366355896 0.015199802815914154 -0.01456630788743496 0.07113601267337799 -0.28414756059646606 -0.46263501048088074 -0.3768780529499054 -0.6986286640167236 -0.4630459249019623 -0.6918565034866333 -0.6134748458862305 -0.3992202579975128 -0.6908128261566162 -0.5994771122932434 -0.7540557384490967 -0.42208656668663025 -0.4067032039165497 -0.36871352791786194 -0.4011155366897583 -0.20620021224021912 -0.3913738429546356 -0.15451519191265106 0.0013327783672139049 -0.02553446963429451 0.02147810161113739 0.034869950264692307 -0.025610346347093582 -0.02332570031285286 -0.005323158577084541 0.02572297304868698 0.024057000875473022 0.0032184161245822906 -0.027917856350541115 -0.17266292870044708 -0.440837562084198 -0.7729938626289368 -0.9345600008964539 -0.8683688044548035 -0.67499840259552 -0.8912546038627625 -0.7646325826644897 -0.891497790813446 -0.6452617645263672 -0.4892314672470093 -0.38705575466156006 -0.5330349206924438 -0.14166608452796936 -0.318213552236557 -0.23230133950710297 -0.10610581189393997 -0.011555621400475502 0.007241811603307724 0.030496422201395035 0.02560075744986534 0.017829634249210358 -0.013942645862698555 0.022242475301027298 -0.011686759069561958 0.017838124185800552 -0.019849147647619247 -0.02011677250266075 0.04482334852218628 -0.12172012031078339 0.0035791657865047455 -0.206497460603714 -0.11236142367124557 -0.17674404382705688 -0.3766219913959503 -0.20003920793533325 -0.1896194964647293 -0.2775168716907501 -0.03379932418465614 -0.17456002533435822 -0.1623513102531433 -0.12364321947097778 -0.022976484149694443 -0.026096872985363007 -0.02215685322880745 -0.10861290991306305 0.020598765462636948 0.028732027858495712 -0.008747752755880356 0.006851661950349808
0.01708235591650009 -0.011310748755931854 -0.007224934175610542 -0.00554470531642437 -0.008234113454818726 0.021543342620134354 -0.035279326140880585 -0.01555628515779972 -0.00021305307745933533 -0.015118926763534546 -0.01120828278362751 -0.012125398963689804 -9.567663073539734e-05 0.17571386694908142 0.12145954370498657 0.1046910434961319 0.025180380791425705 -0.018484456464648247 0.0013724491000175476 -0.004257913678884506 0.008257091045379639 -0.023515140637755394 -0.008405158296227455 -0.021692946553230286 0.01519029214978218 -0.030276883393526077 -0.014069221913814545 0.011471420526504517 0.01789213716983795 0.03397243842482567 -0.0002215467393398285 -0.03002341091632843 0.008021775633096695 -0.01511499285697937 -0.12906686961650848 0.27623242139816284 0.17481394112110138 -0.08778233081102371 -0.007154157385230064 -0.14056678116321564 -0.06311877071857452 -0.156819686293602 0.012461259961128235 0.2722066342830658 -0.048915911465883255 0.0076628150418400764 -0.03032175824046135 -0.014051834121346474 0.08183436840772629 0.13098560273647308 0.022723618894815445 -0.005771441385149956 -0.012383656576275826 -0.01344410888850689 0.020687364041805267 -0.031060360372066498 0.0011344924569129944 -0.03128930181264877 -0.019979801028966904 0.021344434469938278 -0.017118996009230614 0.06362742930650711 -0.00897715613245964 0.030277591198682785 -0.00980233121663332 0.17677365243434906 0.012213092297315598 0.22594493627548218 0.0181170254945755 0.2263367921113968 -0.1596982479095459 -0.1543167531490326 -0.08438695967197418 -0.16538284718990326 -0.19830216467380524 -0.6004379391670227 -0.4869396984577179 -0.13993975520133972 -0.18410390615463257 -0.12755312025547028 -0.08057321608066559 0.0945620909333229 -0.01769089698791504 -0.0010952986776828766 -0.0074981749057769775 0.015148356556892395 0.057441264390945435 -0.01019827090203762 -0.17734216153621674 0.1018419861793518 0.14437739551067352 0.328925758600235 0.40343815088272095 0.5957887172698975 0.3650228679180145 0.16969893872737885 0.359634131193161 0.2902117669582367 0.1043286919593811 0.08970089256763458 0.048999425023794174 0.06876156479120255 -0.042935919016599655 0.11860569566488266 -0.029580621048808098 -0.1895301342010498 -0.27889665961265564 0.06206519156694412 0.12630414962768555 0.001409451593644917 0.0040491558611392975 -0.03210877254605293 0.030729923397302628 0.13003791868686676 0.12056899070739746 0.23293989896774292 -0.1043778583407402 -0.029429063200950623 0.1319076120853424 0.3411324620246887 0.45499831438064575 0.5506191849708557 0.32140418887138367 0.12386168539524078 0.13565398752689362 0.15654446184635162 0.4829257130622864 0.39628031849861145 0.31788790225982666 -0.048519715666770935 -0.14687857031822205 -0.0449448898434639 -0.02459026500582695 -0.264798104763031 -0.12722107768058777 -0.49192842841148376 -0.4691821336746216 -0.1167282983660698 0.034511540085077286 0.02155471220612526 0.013056721538305283 -9.82917845249176e-05 0.02216196432709694 0.13372810184955597 0.11793351918458939 -0.28194934129714966 0.08600735664367676 0.3181331157684326 0.14078417420387268 0.20902583003044128 0.09545864909887314 0.24217647314071655 0.24571359157562256 0.37859997153282166 0.3375994563102722 0.2597430944442749 0.2243829369544983 0.29396146535873413 0.15473724901676178 0.04399975389242172 0.08062387257814407 -0.07601693272590637 -0.1827779859304428 -0.6492209434509277 -0.588571310043335 -0.15362943708896637 0.0022414885461330414 0.01728971302509308 -0.021011915057897568 0.013690359890460968 0.012067044153809547 -0.2737489342689514 -0.2862347662448883 0.0015467634657397866 0.08164787292480469 -0.009500023908913136 0.31322965025901794 0.22935084998607635 0.11323472112417221 0.2271081805229187 0.31533122062683105 0.18144148588180542 -0.013269981369376183 0.15491370856761932 0.0452713780105114 0.134489044547081 0.041222549974918365 0.026203259825706482 -0.052131444215774536 0.08109331876039505 0.053595997393131256 -0.3335454761981964 -0.9472911357879639 -0.3293097913265228 0.15423481166362762 0.020896583795547485 0.029045503586530685 -0.0005874708294868469 -0.21895039081573486 0.09394330531358719 0.5621288418769836 0.5416162014007568 -0.11077959090471268 0.3419942855834961 0.051091816276311874 0.03294740244746208 0.123185895383358 0.09982212632894516 0.033157892525196075 -0.09750372916460037 0.005198101047426462 -0.02551627904176712 0.1252833604812622 -0.15176987648010254 -0.06621536612510681 -0.0673631802201271 -0.12425196170806885 -0.07920681685209274 -0.0566117949783802 -0.5069618821144104 -0.9111180305480957 -0.4558371901512146 0.11982946842908859 -0.034673161804676056 -0.0024303272366523743 0.018090102821588516 -0.18734516203403473 -0.21566885709762573 0.20953050255775452 0.2738862931728363 -0.04084112122654915 -0.07865258306264877 0.19687984883785248 -0.10138663649559021 0.06840776652097702 -0.08748173713684082 0.057947464287281036 -0.10122168809175491 -0.18115346133708954 0.0495377779006958 -0.07638226449489594 0.052707698196172714 -0.0006321805412881076 -0.13563039898872375 0.009678971953690052 0.09111009538173676 0.33456823229789734 -0.17362745106220245 -0.7831716537475586 -0.14066998660564423 -0.03419727832078934 -0.011084204539656639 0.02974342182278633 0.007325049489736557 -0.04504735395312309 -0.08040061593055725 0.18352986872196198 0.13090714812278748 -0.10132982581853867 -0.16068053245544434 -0.1818585991859436 -0.17301712930202484 -0.24932940304279327 0.014028262346982956 0.009694219566881657 -0.2887696921825409 -0.006008869968354702 0.040316082537174225 -0.3068757951259613 -0.09912844747304916 0.09829220175743103 0.08609829843044281 -0.003068279940634966 0.028356153517961502 0.031204625964164734 -0.12349367886781693 -0.45196643471717834 -0.3034703731536865 0.0164460688829422 0.03324783220887184 0.003595016896724701 -0.027386803179979324 -0.07166581600904465 -0.2587096691131592 0.11933132261037827 -0.04633051156997681 -0.3861682415008545 -0.45633944869041443 -0.46397173404693604 -0.3052647113800049 -0.3580061197280884 -0.39964208006858826 -0.4591212570667267 -0.5622994899749756 -0.5126916170120239 0.004427481442689896 0.11431891471147537 0.12375706434249878 0.06298752874135971 -0.15716087818145752 -0.23413105309009552 -0.048954106867313385 0.1225966289639473 -0.26996296644210815 -0.38085368275642395 -0.4217390716075897 0.006615521386265755 0.015408892184495926 -0.019044898450374603 -0.0021431446075439453 -0.10833682119846344 -0.04869973286986351 -0.32786864042282104 -0.6303771734237671 -0.9770740270614624 -0.9422606229782104 -0.7205213308334351 -1.0721960067749023 -0.8282337188720703 -0.9602881073951721 -0.9871564507484436 -0.7512096762657166 -0.40079954266548157 -0.24190634489059448 0.03957190364599228 0.02425147034227848 0.06871417164802551 0.016221558675169945 0.12213121354579926 -0.16193439066410065 0.24594390392303467 -0.24023574590682983 -0.3280549943447113 0.04163844883441925 0.029796790331602097 -0.0185262318700552 0.030514221638441086 -0.028958454728126526 -0.07123290747404099 -0.342913419008255 -0.35857248306274414 -1.050613284111023 -1.169570803642273 -1.288434624671936 -1.600473165512085 -1.46169912815094 -1.1871775388717651 -0.9348524808883667 -0.6141394972801208 -0.9991672039031982 -0.5575680136680603 -0.1966921091079712 -0.20993544161319733 -0.17989543080329895 -0.027561431750655174 0.10497713834047318 0.011715022847056389 0.3891933262348175 -0.08248402178287506 -0.3452182710170746 -0.36285459995269775 0.2413567453622818 -0.10145517438650131 0.013689592480659485 0.015910319983959198 0.03377195820212364 0.07765728235244751 -0.11173047870397568 -0.6703465580940247 -0.7455294728279114 -1.2062126398086548 -1.2290802001953125 -0.8900036811828613 -1.0364973545074463 -0.6229536533355713 -0.4241637885570526 -0.3560838997364044 -0.45489177107810974 -0.3111375570297241 -0.2239529937505722 -0.3085174262523651 -0.03771253675222397 0.13135068118572235 0.021621128544211388 0.046194661408662796 -0.31329214572906494 -0.7468016147613525 -1.0563710927963257 -0.637656033039093 -0.14296376705169678 0.1382349729537964 0.034836526960134506 -0.030714556574821472 0.013831287622451782 0.11980175226926804 -0.3570824861526489 -0.4204138219356537 -0.9149995446205139 -0.9568840861320496 -0.5397687554359436 -0.10455182194709778 -0.0477520190179348 0.10659778863191605 0.0477614663541317 0.05864277109503746 0.11330004036426544 0.028273552656173706 -0.06833544373512268 -0.23318082094192505 0.19235415756702423 -0.2316053956747055 0.07037113606929779 0.00849136896431446 -0.6269071102142334 -0.8642632961273193 -0.5583150386810303 -0.24640454351902008 0.3655897080898285 0.3512660562992096 0.09862109273672104 -0.013014918193221092 -0.0004113204777240753 0.08834412693977356 0.18993255496025085 -0.5588623285293579 -0.2869599759578705 -0.11920231580734253 0.1512790322303772 0.18278706073760986 0.047291673719882965 0.1798776537179947 0.21482203900814056 0.14127254486083984 0.06474326550960541 -0.07753308862447739 -0.13438019156455994 0.020687175914645195 -0.05196769908070564 0.12806983292102814 -0.41962018609046936 -0.019946841523051262 -0.5626322627067566 -0.5659571886062622 -0.3637838363647461 0.13335010409355164 0.7061938047409058 0.30007341504096985 0.14253905415534973 0.00754118338227272 0.016700811684131622 -0.1048523336648941 0.16922329366207123 -0.12287117540836334 0.27023443579673767 0.22617916762828827 0.052130769938230515 -0.006657661870121956 0.08340761810541153 0.24751323461532593 0.23623183369636536 0.18019193410873413 0.13439308106899261 -0.04699777811765671 -0.011240091174840927 0.01674610935151577 -0.03296258673071861 -0.05552118644118309 -0.07186994701623917 -0.21177460253238678 -0.1616516411304474 -0.29032573103904724 -0.29638588428497314 0.2254055142402649 0.7027613520622253 0.5941193699836731 0.3726927936077118 0.026985298842191696 0.0314689539372921 -0.2767694890499115 0.3694470524787903 0.3022210896015167 0.41228142380714417 0.3749902546405792 0.038117554038763046 0.12961719930171967 0.049442045390605927 -0.03033357486128807 0.13045595586299896 0.31670117378234863 0.12303668260574341 0.12425059080123901 -0.03300958126783371 0.18746016919612885 -0.051699522882699966 0.019458763301372528 -0.05957317352294922 -0.040367648005485535 -0.2918996810913086 -0.03466801345348358 0.13168640434741974 0.09162130951881409 0.9702935814857483 0.7292920351028442 0.32149991393089294 -0.01045362837612629 0.1971231997013092 -0.2352910339832306 0.07685104757547379 0.11761852353811264 0.3963697850704193 0.17446032166481018 0.3992595672607422 0.0766601413488388 0.1558496356010437 0.140591099858284 0.01642257161438465 0.13464851677417755 0.27789372205734253 0.18613502383232117 0.2572193741798401 0.14626672863960266 0.23168623447418213 -0.18880076706409454 0.02725639007985592 0.06738576292991638 0.15202651917934418 0.16312213242053986 0.3166487216949463 0.6400832533836365 0.7293097972869873 0.714486837387085 0.12894584238529205 0.03400302305817604 0.21601329743862152 -0.43330642580986023 0.017862621694803238 0.35014447569847107 0.12661795318126678 0.20100024342536926 0.08532912284135818 0.29555854201316833 0.08396477997303009 -0.08007676154375076 0.056329600512981415 0.24931877851486206 0.21832716464996338 0.06302526593208313 0.11147666722536087 0.1409606784582138 0.20574849843978882 0.21229219436645508 0.1232479140162468 0.30838581919670105 0.3043438196182251 0.305343359708786 0.5016300082206726 0.4632560908794403 0.9017183780670166 0.6245132684707642 -0.09760625660419464 0.03398186340928078 0.16529202461242676 -0.33836284279823303 0.2649875581264496 0.7205759286880493 0.406561017036438 0.45034119486808777 0.24800078570842743 0.2929154932498932 0.17887799441814423 0.27071240544319153 0.11869862675666809 0.10058800876140594 -0.1533241719007492 0.12040625512599945 -0.003667193464934826 0.0068533760495483875 0.22682741284370422 0.20296666026115417 0.30420953035354614 0.4010706841945648 0.05297820270061493 0.14193561673164368 0.5966518521308899 1.1294604539871216 1.2083443403244019 0.8454676270484924 0.021161958575248718 0.0027317367494106293 0.0658726692199707 0.2779020667076111 0.20065347850322723 0.4119947850704193 0.21931764483451843 0.23457707464694977 -0.07533789426088333 0.18682681024074554 0.24532410502433777 0.02365104854106903 0.024561038240790367 0.09892838448286057 0.07514307647943497 -0.01933184079825878 -0.10884048044681549 -0.14407658576965332 0.07831988483667374 0.07408124208450317 0.5783073306083679 0.18225611746311188 0.2096872627735138 0.5423420071601868 0.9862055778503418 0.8209297060966492 0.7371160387992859 0.1377926766872406 -0.018077267333865166 0.024210337549448013 0.08789552748203278 0.25353577733039856 0.2712899446487427 0.43286970257759094 0.1677486002445221 0.32589006423950195 0.032897524535655975 -0.025852324441075325 0.119598887860775 -0.13269451260566711 -0.07093092054128647 0.0896424949169159 -0.032025717198848724 -0.06737883388996124 -0.08921879529953003 0.03920102119445801 0.048178210854530334 0.3251096308231354 0.3288169503211975 0.29051029682159424 0.22257119417190552 0.7063223123550415 0.452079176902771 0.5939351320266724 0.5200997591018677 -0.034627243876457214 0.03148889169096947 -0.03277325630187988 0.002994447946548462 0.011606541462242603 0.3010960519313812 -0.010741006582975388 -0.2505192160606384 -0.2631704807281494 -0.15494529902935028 -0.01998264715075493 -0.1462545096874237 -0.02054637297987938 -0.09520270675420761 -0.02864689566195011 -0.22094756364822388 -0.15828727185726166 -0.4052431583404541 -0.3187039792537689 -0.0362602099776268 0.2684656083583832 0.1790192425251007 0.2890792787075043 0.6583725214004517 0.11583200097084045 0.45106542110443115 0.36766254901885986 0.2799055278301239 0.003403816372156143 0.02351759374141693 -0.00583462230861187 0.02851729467511177 0.06881649047136307 -0.07115501910448074 -0.5645822882652283 -0.5447043180465698 -0.6447174549102783 -0.6587125062942505 -0.5328589677810669 -0.5872316360473633 -0.31918713450431824 -0.2492077797651291 0.11811602860689163 -0.3304535746574402 -0.017593152821063995 -0.0716632828116417 -0.5061033964157104 -0.4143281877040863 0.022456010803580284 -0.18359607458114624 -0.03561324253678322 -0.32460305094718933 0.597845733165741 0.1689937561750412 -0.10604079067707062 0.09902239590883255 0.11069925874471664 -0.03275090456008911 -0.0023377016186714172 0.024009864777326584 -0.05403975024819374 -0.13648930191993713 -0.34006279706954956 -0.2643454074859619 -0.923926591873169 -0.7903592586517334 -0.8028530478477478 -0.746662437915802 -0.8189036250114441 -0.7633278965950012 -0.6035782694816589 -0.7460734844207764 -0.7794134020805359 -0.38769978284835815 -0.5095142722129822 -0.6004218459129333 -0.259442001581192 0.0362376868724823 -0.3562207818031311 0.21338464319705963 -0.17857356369495392 0.024545544758439064 0.005013864953070879 -0.022606173530220985 0.0989505723118782 -0.0184903834015131 0.022543270140886307 0.020119991153478622 0.00883500650525093 -0.030698582530021667 -0.06408540904521942 -0.012553652748465538 -0.08402449637651443 -0.21557222306728363 -0.07704945653676987 -0.17789889872074127 -0.09325138479471207 -0.24693842232227325 -0.1599322110414505 -0.19248636066913605 0.025694236159324646 -0.1634543389081955 0.03340870887041092 -0.10291168093681335 -0.058821238577365875 -0.022163894027471542 -0.12832823395729065 -0.10482939332723618 -0.014642035588622093 0.016089458018541336 -0.04579468443989754 -0.022746190428733826 0.003627318888902664 -0.005703922361135483 0.0001777932047843933 -0.001964181661605835 -0.035265952348709106 -0.022510938346385956 -0.021259624511003494 0.0003944970667362213 -0.011284017004072666 -0.016176264733076096 -0.029962413012981415 0.012124717235565186 -0.017272530123591423 -0.026024503633379936 0.014060292392969131 -0.024381034076213837 0.007881004363298416 0.0050042010843753815 0.009151920676231384 0.017777346074581146 0.0022042281925678253 0.01718168333172798 -0.024156231433153152 -0.02442426048219204 -0.07272589951753616 -0.004328466951847076 -0.015128741040825844 -0.012247303500771523 -0.016376756131649017 -0.023895621299743652
0.03075053170323372 -0.0019487105309963226 -0.025660425424575806 -0.031193163245916367 0.0003257058560848236 0.03014632686972618 -0.021131154149770737 0.02045704424381256 0.0261029452085495 -0.023249492049217224 -0.028207823634147644 0.028209056705236435 0.02597130462527275 -0.005191614385694265 -0.006514707580208778 0.012759067118167877 -0.0015518665313720703 0.015848372131586075 0.02592819556593895 0.024837356060743332 0.004774753004312515 0.023258134722709656 -0.01785331591963768 -0.025737950578331947 -0.015496177598834038 0.016947045922279358 -0.029803073033690453 -0.009790807962417603 0.02935296669602394 -0.010060839354991913 -0.006678823381662369 -0.008905377238988876 0.0072349607944488525 -0.001750163733959198 -0.015439353883266449 0.016180433332920074 -0.017628543078899384 0.1547948271036148 0.10799149423837662 0.2837153971195221 0.26369553804397583 0.1566501408815384 0.1841779500246048 0.18807578086853027 0.03557116165757179 -0.013420728035271168 0.304657518863678 0.019704630598425865 0.03527539595961571 -0.034824520349502563 0.030455823987722397 -0.016557812690734863 0.02917325124144554 -0.02169962227344513 -0.026824599131941795 -0.01469833217561245 0.01723363623023033 0.032529380172491074 -0.013324512168765068 -0.0014573894441127777 -0.02313891053199768 0.04994603991508484 0.08859208226203918 0.027757054194808006 -0.12005360424518585 -0.1477138102054596 -0.09913666546344757 -0.2733347713947296 -0.3117953836917877 -0.17392361164093018 0.12004239112138748 -0.010376334190368652 -0.09819640964269638 -0.293317973613739 -0.017582623288035393 -0.11569121479988098 -0.09538793563842773 0.24197636544704437 0.011263927444815636 -0.19462089240550995 0.020003654062747955 0.0263972170650959 0.0353240929543972 0.009036663919687271 0.034620802849531174 -0.022216815501451492 -0.022570351138710976 0.017537854611873627 0.1174396350979805 -0.16502538323402405 -0.1945132166147232 -0.143461674451828 -0.2651737332344055 -0.46127718687057495 -0.48441943526268005 -0.43504172563552856 -0.6041197776794434 -0.12898366153240204 -0.519324004650116 0.09867889434099197 -0.06561820209026337 -0.49940547347068787 -0.4256894290447235 -0.23444020748138428 -0.08951406180858612 -0.09284138679504395 -0.2312142252922058 -0.5153809189796448 0.0075436984188854694 0.0034062231425195932 -0.030389301478862762 0.02768530324101448 -0.02158387005329132 -0.0176988672465086 -0.10061739385128021 0.2894921600818634 -0.23070824146270752 -0.3500664234161377 -0.4012852907180786 -0.2695719003677368 -0.10868861526250839 -0.21232269704341888 -0.20622971653938293 -0.2780996561050415 -0.06689019501209259 -0.07367593795061111 -0.1254991590976715 -0.1344931721687317 -0.0010764398612082005 -0.10606610774993896 0.01724780537188053 0.30367758870124817 0.06618228554725647 0.17055141925811768 -0.09664292633533478 0.08343645930290222 0.03840763494372368 -0.08935936540365219 -0.16640256345272064 -0.018916821107268333 -0.023394495248794556 -0.025932274758815765 -0.10304628312587738 0.3023095428943634 -0.4875255227088928 -0.5844786167144775 -0.6228042244911194 -0.49177756905555725 -0.2579498291015625 -0.34305769205093384 -0.38517022132873535 -0.1945309191942215 0.01568814180791378 -0.05836816132068634 0.0004629679024219513 0.1214609444141388 -0.005298367235809565 -0.07480963319540024 0.18328028917312622 -0.10417839139699936 0.2063436508178711 0.3631872534751892 0.42730018496513367 0.08349490165710449 0.1736513376235962 0.54830402135849 -0.2005874067544937 -0.02042279578745365 0.02190054953098297 -0.026444487273693085 -0.3133562207221985 -0.3073638379573822 -0.6384700536727905 -0.8057490587234497 -0.744184136390686 -0.5392941832542419 -0.43479010462760925 -0.07012789696455002 -0.14074735343456268 -0.1160275936126709 0.30350393056869507 0.10449794679880142 0.16015629470348358 0.09011635184288025 0.17035335302352905 0.07274515181779861 0.3469931483268738 0.3740968108177185 0.12285564094781876 0.2632789611816406 0.2671622931957245 0.5445387363433838 0.4805355668067932 0.770346999168396 0.12065297365188599 0.25734660029411316 0.015205621719360352 -0.12682923674583435 -0.14343753457069397 -0.3166835904121399 -0.4946056008338928 -0.5966923832893372 -0.5880087018013 -0.24442771077156067 -0.3280906677246094 -0.018510866910219193 0.150017648935318 0.1900150328874588 0.09625823050737381 -0.015149901621043682 0.11695357412099838 0.16606537997722626 0.31877389550209045 -0.003725691232830286 0.31841135025024414 0.06304760277271271 -0.004108656197786331 0.03520289063453674 0.37873604893684387 0.3214484453201294 0.3415384590625763 0.6816807985305786 -0.2576424479484558 0.17647378146648407 0.026890385895967484 -0.09267477691173553 -0.1675662100315094 -0.5697281956672668 -0.3943617045879364 -0.1887722760438919 -0.5991301536560059 0.09397415816783905 -0.0044995457865297794 0.08701854199171066 -0.004887846298515797 0.12588883936405182 0.26447972655296326 0.03679977357387543 0.2297702133655548 0.13291800022125244 0.08109305053949356 0.12762771546840668 0.149557426571846 0.030096543952822685 0.11802647262811661 0.3123284876346588 -0.1491152048110962 0.15022023022174835 0.17004716396331787 0.17685532569885254 0.12164890021085739 -0.3012518882751465 0.0031543970108032227 0.016617301851511 -0.15341347455978394 -0.4197530150413513 -0.5168309211730957 -0.051175251603126526 -0.40363848209381104 0.1670583337545395 0.005115012638270855 -0.06292302161455154 0.22617509961128235 0.12301898747682571 0.2034478485584259 0.27687716484069824 0.1623045802116394 -0.06483863294124603 -0.013881104998290539 -0.18577684462070465 -0.12199827283620834 -0.09565768390893936 0.033054158091545105 -0.08162101358175278 -0.33879005908966064 -0.24853873252868652 0.13814228773117065 -0.38234901428222656 0.4523886740207672 -0.15621578693389893 -0.0021306388080120087 0.05963953956961632 -0.28960752487182617 -0.2664759159088135 -0.4276029169559479 -0.22268728911876678 -0.24206291139125824 0.1511932909488678 0.1745687574148178 0.18257339298725128 0.4606878161430359 0.21309584379196167 -0.04523002728819847 -0.07242468744516373 -0.21476419270038605 -0.5591423511505127 -0.620012104511261 -0.6890292167663574 -0.20597432553768158 -0.19278711080551147 -0.20717689394950867 0.08264436572790146 -0.021671466529369354 0.19447161257266998 -0.13371513783931732 -0.28890514373779297 -0.018483966588974 -0.1273747831583023 -0.0020993128418922424 0.01628866046667099 -0.02353564277291298 -0.3830197751522064 -0.40511345863342285 -0.29190441966056824 0.05455989018082619 0.020021729171276093 0.2289261519908905 0.061362676322460175 0.28482359647750854 0.3610699474811554 0.039550282061100006 0.19909167289733887 -0.48149582743644714 -0.8202788829803467 -0.748592734336853 -0.7055907845497131 -0.5260565876960754 -0.06786864250898361 -0.10256659984588623 0.006891310680657625 -0.12294093519449234 0.13310003280639648 0.640716552734375 -0.48512208461761475 -0.22951599955558777 -0.015882786363363266 0.027415286749601364 0.0025376686826348305 0.16687171161174774 -0.16007326543331146 -0.608457624912262 -0.10768092423677444 0.20757527649402618 0.18327711522579193 0.1352020800113678 0.265074759721756 0.12434622645378113 0.19118914008140564 0.08962662518024445 -0.2088199257850647 -0.45960983633995056 -0.5831884145736694 -0.6835463643074036 -0.5305780172348022 -0.39267948269844055 -0.2049211710691452 -0.008256991393864155 -0.059669215232133865 -0.005235509015619755 0.11653903871774673 0.5858638286590576 -0.2405833899974823 -0.3022485673427582 0.003199804574251175 -0.028589019551873207 -0.012651421129703522 0.12916973233222961 -0.3462250530719757 -0.035519592463970184 0.10942821949720383 0.07118028402328491 0.20304593443870544 0.17755790054798126 0.22131454944610596 0.2975827753543854 -0.0012908375356346369 -0.107821024954319 -0.516180694103241 -0.4832113981246948 -0.5397498607635498 -0.3960658609867096 -0.41532811522483826 -0.34625717997550964 -0.31388652324676514 -0.22957119345664978 0.006058716215193272 0.243844136595726 0.5811000466346741 0.5653316378593445 -0.5180357098579407 0.08621992915868759 -0.015238000079989433 -0.015764331445097923 -0.01196183543652296 0.005918548908084631 -0.176631897687912 -0.2331942468881607 -0.1478278785943985 -0.1061427965760231 -0.17340902984142303 0.11902162432670593 0.36007246375083923 0.48909422755241394 -0.00960603915154934 -0.21601200103759766 -0.3661159873008728 -0.6216698884963989 -0.5608121156692505 -0.4639700949192047 -0.4685473144054413 -0.4906688630580902 -0.17051206529140472 0.18382252752780914 0.04888547584414482 0.21681278944015503 0.619526207447052 0.4930160641670227 -0.67071133852005 -0.08824194222688675 0.016391880810260773 0.03239315375685692 0.03273739293217659 0.058714818209409714 -0.3741200566291809 0.10684233158826828 0.2587399184703827 0.015425397083163261 -0.22247816622257233 0.20132090151309967 0.19506901502609253 0.020415615290403366 -0.07267635315656662 -0.46460750699043274 -0.7355186343193054 -0.47795194387435913 -0.6624665856361389 -0.47696876525878906 -0.4834004342556 -0.32683494687080383 -0.14385168254375458 0.08536607772111893 0.318555623292923 0.2709353566169739 0.48810306191444397 -0.10239642858505249 0.0093152467161417 -0.3212215006351471 -0.2159036099910736 0.03263705596327782 -0.025401942431926727 -0.41061413288116455 -0.5662562251091003 0.10145355761051178 0.46627309918403625 -0.18182750046253204 0.2467775046825409 0.09921512007713318 0.11220136284828186 -0.08446410298347473 -0.6612671613693237 -0.3152256906032562 -0.7257458567619324 -0.6048869490623474 -0.6530700325965881 -0.40689826011657715 -0.4771820306777954 -0.14522938430309296 0.05673835054039955 -0.04792008548974991 0.12324313819408417 0.02139761485159397 -0.0243418850004673 -0.0248135793954134 -0.03906392306089401 -0.3857073485851288 -0.18371136486530304 -0.02316620573401451 0.03241484984755516 -0.20105230808258057 -0.44685274362564087 -0.028952019289135933 0.24312610924243927 0.5525131225585938 0.09058450162410736 -0.03412972018122673 0.00866352766752243 -0.3158223032951355 -0.6531977653503418 -1.0231008529663086 -0.9965881705284119 -0.9244357347488403 -0.4295082092285156 -0.22138990461826324 0.27879437804222107 0.0660087838768959 0.28107091784477234 0.2538509964942932 0.3352871239185333 0.13369017839431763 -0.03860511630773544 0.38198599219322205 -0.561031699180603 -0.44227200746536255 -0.26922476291656494 -0.003983326256275177 -0.0033790096640586853 -0.13216707110404968 -0.5038139224052429 0.2015833556652069 -0.011844965629279613 0.30880415439605713 0.16258539259433746 -0.1153993234038353 0.0785357877612114 -0.19147691130638123 -0.4315042197704315 -0.936770498752594 -0.5590636730194092 -0.5391504168510437 0.06897803395986557 0.048667099326848984 0.20579980313777924 0.14566347002983093 0.27443915605545044 0.18338830769062042 -0.1510368287563324 0.010320402681827545 0.2939174473285675 -0.02067217417061329 -0.4882115423679352 -0.3882620334625244 -0.1117376983165741 -0.019335441291332245 -0.016778815537691116 -0.12268718332052231 -0.4946214556694031 0.0638572946190834 0.10262909531593323 0.17353269457817078 0.1353808492422104 0.07654082030057907 -0.07195526361465454 -0.03440425544977188 0.33765286207199097 -0.25108757615089417 -0.11123472452163696 -0.26536622643470764 -0.014826434664428234 0.0035786330699920654 -0.10212608426809311 0.008913932368159294 0.17587214708328247 0.022198166698217392 -0.07909984141588211 -0.23547931015491486 -0.08069844543933868 -0.8381432890892029 -0.3839930295944214 -0.2810986340045929 -0.09136668592691422 0.03084767982363701 0.007899105548858643 -0.2837510108947754 -0.6522254943847656 -0.12473190575838089 0.08778713643550873 0.23239292204380035 0.06992689520120621 0.09754065424203873 0.1041957288980484 0.13188491761684418 0.35692811012268066 0.15775750577449799 0.2332174926996231 -0.04500647634267807 0.0485776886343956 0.03390168026089668 0.0038052035961300135 0.32836422324180603 -0.176194965839386 -0.08778547495603561 -0.054117053747177124 -0.0648382157087326 -0.3072395622730255 -0.4901511073112488 -0.22157979011535645 -0.09682431817054749 0.100328229367733 -0.03240527957677841 0.009132981300354004 -0.21213553845882416 -0.39659377932548523 -0.27751821279525757 0.2983347475528717 -0.08652039617300034 0.19379334151744843 0.2591722309589386 0.060928575694561005 0.20039547979831696 0.2823578715324402 0.22862356901168823 0.224614679813385 0.0986844152212143 0.1407167762517929 0.07210937887430191 -0.038822922855615616 0.19591549038887024 -0.041046567261219025 -0.08357379585504532 -0.056226927787065506 0.041082847863435745 -0.18057064712047577 -0.5138351917266846 -0.437936395406723 0.07797936350107193 0.10878396034240723 -0.008920060470700264 -0.012902345508337021 -0.08165575563907623 -0.5267660617828369 -0.28489261865615845 -0.10963781923055649 -0.05265958607196808 -0.10242175310850143 -0.01096403319388628 0.18241415917873383 0.20024579763412476 0.2225012183189392 -0.09021657705307007 0.31713759899139404 0.32029202580451965 -0.10150814056396484 0.20474953949451447 0.1740281879901886 0.05142310634255409 -0.010760432109236717 0.1631927788257599 0.2989691197872162 0.01621549390256405 -0.1130201518535614 -0.25423723459243774 -0.21454831957817078 -0.0362892746925354 0.028254251927137375 0.005397025495767593 0.007498234510421753 -0.03461678326129913 -0.25041529536247253 -0.4648262560367584 -0.20531676709651947 -0.4312039911746979 0.0217997208237648 0.12097382545471191 0.3249414265155792 0.019481759518384933 0.3241494297981262 0.12267253547906876 0.11080658435821533 0.2142132669687271 0.22276948392391205 0.24953711032867432 0.10557211935520172 0.16959041357040405 0.10610968619585037 -0.11736081540584564 -0.1297117918729782 0.03315103426575661 -0.10721048712730408 -0.15795683860778809 -0.17474079132080078 -0.0033099986612796783 0.029999103397130966 -0.0023229755461215973 0.016815539449453354 -0.07700437307357788 -0.2531156837940216 -0.06070699542760849 -0.2384549230337143 -0.2462165355682373 -0.26801633834838867 -0.12007465958595276 0.1864635944366455 0.0008446951396763325 0.09289273619651794 0.06617564707994461 0.28765711188316345 0.07444338500499725 0.0930437296628952 -0.06413378566503525 -0.3466378450393677 0.10499531030654907 0.18841902911663055 -0.5403545498847961 -0.5451226234436035 -0.26884159445762634 0.17374306917190552 0.024558616802096367 0.09787006676197052 0.03135576471686363 0.004500098526477814 -0.019697267562150955 -0.0253545343875885 0.011708013713359833 0.010074988007545471 -0.011787227354943752 -0.14659294486045837 -0.24503786861896515 0.00034901537583209574 -0.6172010898590088 -0.4009755551815033 -0.4352957606315613 -0.6486978530883789 -0.5102018713951111 -0.8427587747573853 -0.6575148105621338 -0.8421065807342529 -0.6995186805725098 -0.7945514917373657 -0.519938588142395 -0.7331697344779968 -0.5091234445571899 -0.436053067445755 -0.22654569149017334 -0.059120673686265945 0.05752168968319893 -0.009816234931349754 0.0012934207916259766 -0.015515251085162163 0.01579282060265541 0.0298982672393322 -0.014827081933617592 0.03391500189900398 0.01300382986664772 -0.054599542170763016 -0.4236709475517273 -0.3248468339443207 -0.6638491749763489 -0.42005637288093567 -0.7254897356033325 -0.7953435778617859 -0.7086753845214844 -0.7715896964073181 -0.7721896767616272 -0.7160183191299438 -0.2605806589126587 -0.3916204273700714 -0.42097580432891846 -0.21189863979816437 -0.11673475801944733 -0.42791199684143066 -0.016837120056152344 -0.16177155077457428 -0.05083749070763588 -0.024747569113969803 0.0012833662331104279 -0.0018410198390483856 -0.0061614178121089935 -0.027461372315883636 0.029440123587846756 -0.01250407099723816 -0.027935365214943886 0.02906428650021553 -0.04409432411193848 -0.048532694578170776 -0.02262275107204914 -0.02597775124013424 -0.10751014947891235 -0.20370078086853027 0.009387088008224964 -0.06950835138559341 -0.27421286702156067 -0.2292768806219101 -0.09754851460456848 -0.032809074968099594 -0.10149738192558289 -0.1224951222538948 -0.028071273118257523 -0.07025057077407837 -0.13036775588989258 -0.17563864588737488 0.020127102732658386 0.01764516532421112 0.018859025090932846 0.016401588916778564
-0.02751064859330654 -0.003614243119955063 -0.02159254625439644 -0.0058355554938316345 -0.009872155264019966 -0.03266103193163872 0.01019289344549179 -0.01909649930894375 -0.031470887362957 0.030869487673044205 -0.006061311811208725 -0.016968855634331703 0.02361476421356201 0.06038904935121536 0.0039487481117248535 0.018330086022615433 0.017864756286144257 0.02461462840437889 0.015802595764398575 -0.004327390342950821 -0.0260660108178854 0.02018776535987854 -0.0327162966132164 -0.0021722838282585144 0.02693512663245201 0.02392660826444626 -0.008586445823311806 0.01561535894870758 0.029574621468782425 -0.015294522047042847 -0.0022701919078826904 -0.02564333751797676 0.01644214615225792 0.019904930144548416 -0.02453535795211792 0.02273660898208618 0.014139596372842789 0.04794609919190407 -0.03460203856229782 0.15844519436359406 0.1538437455892563 -0.027776876464486122 -0.057872772216796875 0.00894976407289505 -0.09404715895652771 -0.014555936679244041 -0.015855636447668076 0.015572283416986465 -0.02182403765618801 0.013453245162963867 -0.009191416203975677 -0.02901773527264595 0.02135971561074257 -0.03472621366381645 0.018778517842292786 0.033976007252931595 -0.006289614364504814 0.008136041462421417 -0.01878306269645691 -0.029309755191206932 0.022891394793987274 0.009494855999946594 -0.008068429306149483 0.06628432869911194 0.047170523554086685 0.11594649404287338 -0.3135825991630554 -0.36060574650764465 -0.3920193016529083 -0.25216153264045715 -0.30867213010787964 -0.2990834712982178 -0.3429970145225525 -0.34345364570617676 -0.34785035252571106 -0.32810497283935547 -0.3787185847759247 -0.26852256059646606 -0.1378641575574875 -0.17096838355064392 -0.07792208343744278 0.02660304680466652 0.027026955038309097 -0.0022772587835788727 0.011113069951534271 -0.031670909374952316 0.011003285646438599 0.09399264305830002 0.22391986846923828 -0.11022351682186127 -0.062354642897844315 -0.3253161311149597 0.10072082281112671 -0.2678520679473877 -0.1874595284461975 -0.39747920632362366 -0.25777432322502136 -0.3844320476055145 -0.0519343763589859 -0.01878565363585949 -0.40648752450942993 -0.6664882898330688 -0.4667957127094269 -0.11026567220687866 -0.5270434617996216 -0.4799880087375641 -0.4349462687969208 0.0633188933134079 -0.05564156919717789 -0.10620267689228058 -0.03195958584547043 0.031936172395944595 0.033608246594667435 -0.024421535432338715 -0.02542239986360073 0.051343079656362534 -0.09593111276626587 0.09124001860618591 0.18329928815364838 -0.5485288500785828 -0.12518563866615295 0.26083576679229736 -0.2881062924861908 -0.27436962723731995 -0.4200793504714966 0.056219980120658875 0.37756139039993286 0.025266241282224655 0.10068890452384949 -0.18861448764801025 -0.060345347970724106 0.14254406094551086 -0.2726381719112396 0.141937255859375 -0.3009427785873413 0.18607084453105927 -0.15951299667358398 -0.2016693651676178 -0.14855295419692993 -0.02120859920978546 0.03112189844250679 0.034773822873830795 -0.09755777567625046 0.11896071583032608 -0.23889745771884918 -0.08141719549894333 -0.3639305830001831 -0.27854466438293457 -0.29899805784225464 0.011149260215461254 0.09464487433433533 -0.24382951855659485 -0.10597798228263855 0.1909918636083603 0.0700230598449707 -0.1036035344004631 0.01576567068696022 0.08317391574382782 -0.06768734753131866 -0.030523329973220825 -0.3510856628417969 -0.2029903531074524 -0.021518953144550323 -0.31081366539001465 -0.29660817980766296 -0.03859807550907135 -0.06880377978086472 0.006892204284667969 0.03284063562750816 0.023412223905324936 -0.06774196028709412 0.019905786961317062 0.29145967960357666 -0.10302363336086273 -0.06996527314186096 -0.19156961143016815 -0.31539762020111084 -0.11831089854240417 -0.1476406455039978 -0.28377461433410645 -0.10328266769647598 0.26348865032196045 -0.016866320744156837 0.26197218894958496 -0.016225291416049004 0.1834992617368698 0.12831297516822815 0.11619330942630768 -0.11716025322675705 0.006267782766371965 0.2152385264635086 0.06473314017057419 -0.5735593438148499 -0.4194510579109192 -0.2236333191394806 0.12847588956356049 0.0034579113125801086 -0.028761550784111023 -0.12277311831712723 -0.1275171935558319 -0.033994317054748535 0.1101982370018959 -0.175497904419899 -0.04295380041003227 -0.27894678711891174 -0.11439955234527588 -0.036114465445280075 -0.21140436828136444 0.04399864375591278 -0.029347172006964684 -0.05077745020389557 0.054518360644578934 0.15278121829032898 0.14895586669445038 0.23577165603637695 0.27473896741867065 -0.16283567249774933 0.08854831755161285 -0.1705297976732254 -0.3015998303890228 -0.3578179180622101 -0.47826626896858215 -0.3346405327320099 0.21307414770126343 -0.02983204461634159 0.019278619438409805 -0.1009753867983818 -0.09446220844984055 -0.27723363041877747 -0.19306421279907227 -0.34526246786117554 -0.2074842005968094 -0.3375052809715271 -0.1487826704978943 0.12398168444633484 0.07512375712394714 -0.08564646542072296 -0.0488753542304039 0.22080186009407043 -0.06615086644887924 0.18982821702957153 0.39424750208854675 0.23703782260417938 0.007153085898607969 -0.09198284894227982 -0.0007456722669303417 0.074894480407238 0.41822120547294617 -0.36937516927719116 -0.4645979106426239 -0.09871423989534378 -0.21588842570781708 -0.029524672776460648 0.03164370730519295 -0.03377646207809448 -0.163979172706604 -0.1637955754995346 0.05124273896217346 0.12301228195428848 -0.012993840500712395 -0.22467003762722015 -0.13490335643291473 -0.01622793823480606 -0.13931094110012054 0.03714854642748833 0.06681621819734573 0.07637247443199158 -0.052472054958343506 0.20811022818088531 0.3043815791606903 0.2623181641101837 0.10617925971746445 0.09475685656070709 0.05653102323412895 0.03629384562373161 0.060655441135168076 0.28734707832336426 -0.13030044734477997 0.05290553718805313 -0.06803244352340698 -0.019524192437529564 0.025713425129652023 -0.05042556673288345 -0.27405524253845215 -0.31167399883270264 -0.23976503312587738 -0.18121066689491272 -0.18391279876232147 -0.32032835483551025 -0.053183648735284805 -0.04585728794336319 -0.07288321107625961 -0.21492336690425873 -0.26275834441185 0.007791649084538221 -0.37841561436653137 -0.44810330867767334 0.08513671904802322 0.028142651543021202 0.3028174638748169 -0.035300977528095245 0.33823999762535095 0.11762814223766327 0.4348089396953583 0.4126158654689789 -0.11917347460985184 -0.012193464674055576 0.012555509805679321 -0.03158417344093323 -0.03991977125406265 -0.06497063487768173 -0.2857288718223572 -0.6110036373138428 -0.2312309443950653 0.02704882249236107 -0.1883419007062912 0.11121156066656113 -0.20840810239315033 0.16112400591373444 0.09521587193012238 -0.08827631920576096 -0.22912117838859558 -0.1857282519340515 -0.6495473384857178 -0.9154099225997925 -0.465422660112381 0.03606146201491356 0.28340983390808105 0.2451932430267334 0.03448750823736191 0.21739564836025238 0.18623681366443634 0.423636257648468 -0.0091200340539217 0.03594878315925598 -0.001725219190120697 0.007785920053720474 0.08152209222316742 -0.10591459274291992 -6.806220426369691e-06 -0.41228920221328735 0.1672210991382599 0.21248184144496918 -0.12834925949573517 -0.10066840797662735 -0.162428081035614 0.01818489469587803 0.03270301967859268 -0.023518895730376244 -0.35078325867652893 -0.7579118609428406 -1.1401978731155396 -1.1736133098602295 -0.5887236595153809 -0.05646640807390213 -0.06195239722728729 0.14273320138454437 0.2682362198829651 0.16014443337917328 0.2338929921388626 0.32418176531791687 -0.12166555225849152 -0.005481615662574768 -0.0039570145308971405 0.021161936223506927 -0.020119447261095047 0.19849109649658203 -0.040150925517082214 -0.3615468144416809 -0.07953571528196335 0.44481512904167175 0.21821047365665436 0.0469052791595459 0.2625996768474579 0.0673508271574974 0.39134591817855835 -0.15351371467113495 -0.7370973825454712 -0.9302266836166382 -1.4655694961547852 -1.0595347881317139 -0.9148061871528625 -0.015524093061685562 0.012440197169780731 -0.02240263670682907 -0.16302867233753204 0.19910967350006104 0.16977234184741974 0.4844071567058563 -0.14895831048488617 -0.029320405796170235 -0.007991926744580269 -0.03137870877981186 -0.046607423573732376 -0.016170477494597435 -0.2514456510543823 -0.13582743704319 0.29382333159446716 0.08147118240594864 0.02679341472685337 0.16872550547122955 0.004611032083630562 0.3552514314651489 0.26774975657463074 -0.6459450721740723 -1.245244026184082 -1.018442153930664 -0.927911102771759 -1.1239985227584839 -0.31197887659072876 -0.10846852511167526 -0.271487832069397 -0.10786943882703781 -0.12506701052188873 -0.08667927980422974 0.1666712462902069 0.422143816947937 -0.050644855946302414 -0.00641515851020813 -0.03277935832738876 -0.030093003064393997 0.027189258486032486 -0.061121679842472076 -0.3080710470676422 0.2543352246284485 -0.1719350963830948 0.04587172716856003 0.14766685664653778 0.2576521635055542 0.3829619586467743 0.3912259042263031 -0.17094354331493378 -0.7996823191642761 -1.0524247884750366 -1.079005241394043 -1.169198751449585 -0.9351537823677063 -0.13752824068069458 -0.3209925591945648 -0.17868712544441223 -0.09871158003807068 0.24335291981697083 0.27640748023986816 0.423069566488266 0.6263222098350525 0.09814021736383438 0.02522255852818489 -0.0077192410826683044 -0.03036869503557682 0.02334674447774887 -0.15629155933856964 -0.6200113296508789 -0.009282791055738926 0.23700763285160065 0.008115527220070362 0.033122263848781586 0.045108288526535034 0.4161539673805237 0.2055870145559311 -0.24528002738952637 -0.8227695822715759 -1.1485695838928223 -1.2773849964141846 -1.1376794576644897 -0.4375278353691101 -0.34210729598999023 -0.09097372740507126 -0.20660193264484406 -0.339463472366333 0.1355363130569458 0.41857457160949707 0.12273743003606796 0.1884000599384308 0.16044165194034576 -0.21996451914310455 0.02002721279859543 -0.004400283098220825 0.026698917150497437 -0.00815272331237793 -0.4750864505767822 0.014412108808755875 0.3334391117095947 0.15950070321559906 0.16612908244132996 0.060730528086423874 0.5615376830101013 0.5556011199951172 -0.2851943075656891 -0.7504808306694031 -1.1751338243484497 -1.135117769241333 -0.82588130235672 -0.5454620718955994 -0.29008498787879944 -0.1932390034198761 0.10649322718381882 -0.10244095325469971 0.24495311081409454 0.30319368839263916 0.15859492123126984 0.26017794013023376 -0.26865747570991516 -0.17328324913978577 -0.09283778816461563 -0.03010641410946846 -0.018090397119522095 0.13232122361660004 -0.5804428458213806 0.00043261682731099427 0.14317384362220764 0.448110431432724 0.12692078948020935 0.44414451718330383 0.6791253089904785 0.16011837124824524 -0.2849651575088501 -0.4273218512535095 -0.6182462573051453 -0.706440269947052 -0.27305981516838074 -0.13996288180351257 -0.11643504351377487 -0.11251082271337509 -0.1393430233001709 0.009820542298257351 0.10016998648643494 0.11940213292837143 0.12511272728443146 0.10528542101383209 -0.13033081591129303 -0.2867133617401123 -0.002520482987165451 -0.009930040687322617 -0.022515498101711273 -0.2117590457201004 -0.21222978830337524 0.2964034378528595 0.3534836769104004 0.15726588666439056 0.16408643126487732 0.3938266634941101 0.024790432304143906 0.21092961728572845 0.10936403274536133 -0.05518157407641411 -0.33181560039520264 -0.08745402097702026 -0.2590234577655792 -0.3035861551761627 -0.20744141936302185 0.07605911791324615 -0.13578814268112183 -0.00945977307856083 -0.2691672444343567 -0.04258117452263832 0.1415736973285675 -0.25874271988868713 -0.1671360433101654 -0.07650614529848099 -0.017768409103155136 -0.030435528606176376 0.03251529857516289 -0.07327335327863693 -0.41413620114326477 -0.10785211622714996 0.05461551249027252 -0.13667002320289612 0.007701225578784943 0.3097134232521057 0.09827157109975815 0.29394403100013733 0.30334949493408203 -0.13888774812221527 -0.033154625445604324 0.046092525124549866 -0.3722086548805237 -0.029901986941695213 -0.30395129323005676 -0.15522132813930511 -0.1589483916759491 -0.06014307960867882 0.18157410621643066 0.3314822316169739 0.007048801053315401 -0.42255595326423645 -0.2354537844657898 -0.05102282017469406 -0.0338888019323349 -0.01792171224951744 0.034896399825811386 -0.08078781515359879 -0.40009620785713196 -0.09056181460618973 0.1749686747789383 -0.12282504141330719 0.06692146509885788 0.1031513661146164 0.2655681371688843 0.2793457806110382 0.35073816776275635 0.022221900522708893 0.028480665758252144 -0.3619242310523987 -0.16451574862003326 -0.24313732981681824 -0.08842284232378006 -0.19830846786499023 -0.2172660529613495 0.17780084908008575 0.15813566744327545 -0.16961269080638885 -0.5143634080886841 -0.1991267055273056 0.013285868801176548 0.25350555777549744 0.13404938578605652 -0.010011103004217148 -0.011710073798894882 -0.05604618042707443 -0.19291836023330688 -0.015756288543343544 0.009688830934464931 -0.016462210565805435 0.19089555740356445 0.2717663645744324 0.12147241085767746 0.36613157391548157 0.3535711467266083 0.23009692132472992 0.19088688492774963 0.12022034823894501 0.026100745424628258 0.14539726078510284 -0.02925628423690796 0.05726838856935501 -0.132730633020401 -0.28620150685310364 0.184191033244133 -0.4443577229976654 -0.02458137832581997 -0.2773072421550751 -0.16738128662109375 0.21191009879112244 -0.025855090469121933 0.001100681722164154 0.03169609233736992 0.030499350279569626 -0.3798844814300537 -0.27484869956970215 0.051582153886556625 -0.13156265020370483 -0.04038451239466667 0.10540059208869934 0.4261358380317688 0.3045319616794586 0.26290181279182434 0.07881958782672882 0.14774806797504425 0.0027458674740046263 -0.09385122358798981 -0.25679388642311096 -0.010465525090694427 -0.21199336647987366 -0.23806798458099365 -0.5876408219337463 -0.6514052748680115 -0.4621082544326782 -0.18868502974510193 0.06502768397331238 0.09908599406480789 0.020457997918128967 0.015519794076681137 -0.00608980655670166 -8.880719542503357e-05 -0.0931490957736969 -0.1300402134656906 0.4852421283721924 -0.18862472474575043 -0.36466991901397705 -0.0655505359172821 -0.10114984959363937 -0.19222119450569153 0.07538081705570221 -0.19595280289649963 0.04691234976053238 -0.12801499664783478 -0.1856037825345993 -0.1511061042547226 -0.4412906765937805 -0.027275793254375458 0.16596511006355286 -0.26082152128219604 -0.5237455368041992 -0.7556544542312622 -0.19543759524822235 0.18511894345283508 0.19654488563537598 0.0784449651837349 -0.0303668100386858 -0.02193932980298996 0.022768225520849228 0.025675110518932343 0.015566345304250717 -0.004271380603313446 -0.1063065305352211 -0.15522532165050507 -0.4268267750740051 -0.46914979815483093 -0.5843200087547302 -0.42323076725006104 -0.6004453897476196 -1.0639290809631348 -0.8355652689933777 -0.838112473487854 -0.954033374786377 -0.6947892308235168 -0.638615608215332 -0.49122366309165955 -0.25452977418899536 -0.3647196292877197 -0.40442344546318054 -0.3580365478992462 -0.23769594728946686 -0.03928958252072334 0.09190361946821213 0.007158059626817703 -0.021134939044713974 -0.030265698209404945 -0.0020860470831394196 0.02884170040488243 0.02906029298901558 -0.020384933799505234 0.03315841034054756 0.007477845065295696 -0.14790965616703033 -0.09856458753347397 -0.2577153146266937 -0.4154609143733978 -0.45341625809669495 -0.47265172004699707 -0.5256827473640442 -0.5105800628662109 -0.423333078622818 -0.4461272358894348 -0.3652665615081787 -0.3704824447631836 -0.26077985763549805 -0.14481624960899353 -0.1936902403831482 -0.128592386841774 -0.16915500164031982 -0.1846047341823578 -0.001014148467220366 0.01604287326335907 0.03488018736243248 0.004262793809175491 -0.02831900306046009 -0.023063844069838524 -0.0343121737241745 0.02896163985133171 -0.020404838025569916 0.0013337619602680206 0.01804875209927559 -0.06421742588281631 -0.05817811191082001 -0.09825952351093292 -0.20265722274780273 -0.20853140950202942 -0.04469253495335579 -0.14091001451015472 -0.18386368453502655 -0.16828683018684387 -0.193962961435318 -0.07727953046560287 0.032253164798021317 0.02127949893474579 -0.015710214152932167 -0.1277334988117218 -0.07617401331663132 -0.27343976497650146 0.0005304291844367981 -0.033456768840551376 0.015864238142967224 -0.024792641401290894
