-0.23895175755023956 0.5173534750938416 -0.7223834991455078 0.3705728352069855 -0.7017998695373535 -0.1306360960006714 0.03778022527694702 -0.35268253087997437 -0.06780815124511719 0.4646822512149811 0.31075263023376465 0.1109326034784317 -0.27224427461624146 -0.4200582504272461 0.2760672867298126 -0.08197160065174103
-0.22201791405677795 0.35454457998275757 0.2348860502243042 -0.38327011466026306 0.1771003007888794 0.3546220660209656 -0.04116181284189224 -0.5421426296234131 -0.20906753838062286 0.28434842824935913 -0.1251780390739441 0.09199052304029465 -0.717021107673645 -0.23590801656246185 -0.4083888828754425 0.12122136354446411
-0.23761756718158722 -0.8031562566757202 -0.07697916030883789 -0.1785145401954651 -0.03478123992681503 -0.4667896628379822 0.17765600979328156 0.21562272310256958 -0.11774599552154541 -1.0735939741134644 -0.7004101276397705 0.2558860778808594 0.10458771884441376 0.21627381443977356 -0.09119591861963272 0.1816129982471466
0.2896121144294739 -0.13043223321437836 -0.044629789888858795 0.17093683779239655 -0.1370449960231781 -0.14640021324157715 -0.07414855808019638 -0.1772647202014923 -0.02419225499033928 -0.1158297136425972 -0.05354846268892288 0.28783032298088074 -0.17441962659358978 -0.22943468391895294 0.1442786604166031 0.14680135250091553
0.2898562252521515 0.3671996295452118 0.12688694894313812 -0.642282247543335 0.08674437552690506 0.14222514629364014 0.17671602964401245 -0.6076565980911255 -0.038718778640031815 0.3555881977081299 -0.025310374796390533 -0.270437628030777 -0.32941675186157227 -0.15356095135211945 -0.47107425332069397 -0.3188551664352417
-0.5673355460166931 0.39752471446990967 -0.3349266052246094 0.14099979400634766 -0.25277894735336304 -0.4464186429977417 0.06512822210788727 0.15022031962871552 0.17258620262145996 0.4356665015220642 0.2583516836166382 -0.3995392322540283 0.2616960108280182 0.2846532166004181 0.05490095168352127 -0.8095935583114624
0.31405195593833923 -0.6173427700996399 -0.4720037281513214 -0.44242334365844727 -0.04120278358459473 -0.2843504250049591 0.18539772927761078 -0.26236411929130554 0.2173568457365036 -0.6273990273475647 -0.24361327290534973 0.09092008322477341 -0.526208758354187 -0.20589515566825867 -0.5941618084907532 0.18610480427742004
-0.3012222349643707 0.31710004806518555 -0.33887913823127747 0.10834778845310211 -0.20074968039989471 -0.6142794489860535 0.08242864161729813 0.29752641916275024 -0.23586365580558777 0.363379567861557 0.22253434360027313 -0.17177890241146088 0.22536501288414001 0.23317725956439972 0.1280398666858673 -0.46405458450317383
-0.30033454298973083 -0.25982922315597534 0.36838996410369873 0.11294867843389511 0.3406824767589569 0.7613466382026672 -0.051077861338853836 0.24254290759563446 0.03507165238261223 -0.330183744430542 -0.08651459962129593 0.1472744345664978 0.19779998064041138 0.1985197812318802 0.09430805593729019 0.10342641174793243
-0.23631832003593445 0.4711974263191223 -0.1441878229379654 0.08402728289365768 -0.0953565388917923 -0.18356195092201233 -0.09730072319507599 0.18997760117053986 0.19295386970043182 0.3257937729358673 0.23359940946102142 -0.2044985443353653 0.19105678796768188 0.2993869185447693 0.13031268119812012 -0.7126182913780212
-0.4602377414703369 -0.34327083826065063 0.2831519544124603 0.09548123925924301 0.27185365557670593 0.5995190143585205 -0.037095215171575546 0.1534159928560257 0.1321326196193695 -0.3427547514438629 -0.053234875202178955 -0.02329089492559433 0.18216532468795776 0.2834145426750183 0.12357781827449799 0.05508003383874893
-0.3091713488101959 -0.38099756836891174 -0.08007065206766129 0.212345153093338 -0.08433409035205841 -0.09413771331310272 0.17551526427268982 -0.14393740892410278 0.05781950056552887 -0.7526534795761108 0.08638621121644974 0.2672308087348938 -0.10391836613416672 -0.21469493210315704 0.19615668058395386 0.18234586715698242
-0.6338193416595459 0.8056920766830444 -0.06879999488592148 0.06543414294719696 -0.055993590503931046 -0.16305910050868988 0.077719546854496 -0.46282967925071716 0.06612397730350494 0.7177047729492188 0.13777954876422882 0.29215872287750244 -0.37106454372406006 -0.45085257291793823 0.09108192473649979 0.18097324669361115
-0.26194286346435547 0.6817722916603088 -0.08375856280326843 -0.30769580602645874 -0.07372301071882248 -0.17120413482189178 0.12352810800075531 -0.3071783185005188 0.047422539442777634 0.7267035245895386 -0.03484569117426872 0.22274085879325867 -0.24802501499652863 -0.30859270691871643 -0.3883097171783447 0.16363801062107086
-0.2360471487045288 -0.12529867887496948 0.35370442271232605 -0.3335963785648346 0.22310343384742737 0.592637300491333 0.05928875133395195 0.11818945407867432 -0.09585365653038025 -0.3622440993785858 -0.49070876836776733 0.10708880424499512 0.05438541993498802 0.105336032807827 -0.41754934191703796 0.08851318061351776
0.30096039175987244 -0.23331360518932343 -0.22895896434783936 0.25239500403404236 -0.09169791638851166 -0.18823663890361786 -0.07448690384626389 -0.5735985040664673 -0.023004580289125443 -0.4192175567150116 0.029799986630678177 0.2094365656375885 -0.18350237607955933 -0.36085256934165955 0.23886550962924957 -0.07976750284433365 
